tree
version=v3
num_class=5
num_tree_per_iteration=5
label_index=0
max_feature_idx=62
objective=multiclass num_class:5
feature_names=Column_0 Column_1 Column_2 Column_3 Column_4 Column_5 Column_6 Column_7 Column_8 Column_9 Column_10 Column_11 Column_12 Column_13 Column_14 Column_15 Column_16 Column_17 Column_18 Column_19 Column_20 Column_21 Column_22 Column_23 Column_24 Column_25 Column_26 Column_27 Column_28 Column_29 Column_30 Column_31 Column_32 Column_33 Column_34 Column_35 Column_36 Column_37 Column_38 Column_39 Column_40 Column_41 Column_42 Column_43 Column_44 Column_45 Column_46 Column_47 Column_48 Column_49 Column_50 Column_51 Column_52 Column_53 Column_54 Column_55 Column_56 Column_57 Column_58 Column_59 Column_60 Column_61 Column_62
feature_infos=[0.039782706115333688:7501.3825819335752] [0.020212788134813309:35799.432883651236] [0.06217997229679139:49873.501939090929] [0.16570745251237146:67772.623671544425] [0.062485444735353911:3795.2034916942011] [0:2334.7091328299766] [0.08859380158519238:37603.741112414777] [0.018293351773450157:58817.307943450876] [0.0052035204612483378:13853.099104254094] [0.06238915968667369:26439.654943320049] [0.021039375193332356:12175.524529207691] [0.08547920393309151:27146.378524545809] [0.029215599325640919:13688.652664034547] [0.064343552644116841:9405.7854447990358] [0:2204.6777002612471] [0.10916179272569376:78281.913203163727] [0.035187981951491545:46209.141091852674] [0.064726492909094657:39271.506465844395] [0:20766.224687748108] [0.014035016101308329:103243.43466491032] [0.016282483129953021:32915.781521062432] [0.039874277857292875:61997.036936093697] [0.012649134313542851:19717.561013340604] [0:2939.7224543329785] [0:4330.0603726256986] [-0.73613092584067996:0.54049835364611032] [-0.63082783191449587:0.50531531161141729] [-0.3382237806305522:0.12966080747133929] [-0.2320100309834249:1.3797022824266647] [-0.37504249218048119:0.31819884647941205] [-0.94220143966958181:0.079072931720053252] [-0.66259704927714769:0.077067246437685158] [-0.094975192086482821:0.40096756301467629] [-1.209433729879589:0.29301742791926111] [-0.20788732460899878:0.5095154395400715] [-0.86764144110556696:0.44418635090985903] [-0.58874178079057182:0.95041098839928917] [-0.40393813905391407:1.103755049476675] [-0.95686998628425923:0.66741251507780208] [-0.27805105032451305:0.21090852907873731] [-0.13611401475508528:0.27489284472681419] [-0.53363824529456427:0.54155696282369437] [-0.82836455350470717:0.39056026055781989] [-1.1167283272839688:0.75783873416702141] [-0.046074215557652592:0.0080260234965654331] [-0.031677849723573258:0.016626609913933756] [-0.04421999593554958:0.012715460473890347] [-0.086448825979306018:0.049270370336202102] [-0.050533272260436884:0.017524553521685145] [-0.20585854115942648:-0.00072921009617627494] [-0.06077775145309814:0.0087293773506269007] [-0.046122452458657266:0.053518944254606959] [-0.02218062156182507:0.041119335700068115] [-0.018530313315979142:0.069017802703326747] [-0.054509663992916381:0.012891135061935934] [-0.037516821122331213:0.017857594592523788] [-0.077308595156654225:-0.00040695530460778048] [-0.028897381480426889:0.12255209089425487] [0.020218350035723268:0.09478370530494229] [-0.040441265769937854:0.023550479933049623] [-0.02081823461645731:0.038230560337564258] [-0.0083547556884036745:0.047776713103580795] [-0.04043725385702103:0.11647116893869844]
tree_sizes=641 719 841 929 842 843 866 861 953 852 938 981 978 950 845 865 968 961 953 954 863 983 972 947 970 874 981 972 962 952 867 986 987 958 958 955 979 969 959 964 953 982 878 950 973 858 876 980 858 971 956 976 874 964 976 864 975 864 961 979 865 975 870 956 980 882 870 877 967 865 968 987 883 962 958 880 880 885 970 983 971 890 882 973 985 967 872 879 969 979 977 975 880 966 869 976 872 883 977 864 985 871 886 974 976 969 984 886 975 871 968 868 875 979 876 969 879 884 979 877 883 890 876 975 879 972 984 876 974 877 981 883 889 989 875 988 983 886 872 990 983 999 886 990 983 985 882 876 987 994 991 971 883 986 994 990 871 882 875 883 992 880 882 989 882 988 981 887 995 884 985 883 889 988 882 983 888 891 998 884 981 1011 887 1000 886 978 989 901 998 888 983 1009 886 998 888 1004 995 895 879 886

Tree=0
num_leaves=5
num_cat=0
split_feature=0 4 57 47
split_gain=5.59834 5.96273 4.87151 5.27815
threshold=6036.2908161506484 2380.169778377393 0.00032384552511294733 0.0036407279984880902
decision_type=2 2 2 2
left_child=2 -2 -1 -4
right_child=1 -3 3 -5
leaf_value=-1.5596350566656632 -1.5596350566656629 -1.1124301049814096 -1.5276918458310735 -1.3583928284077489
leaf_weight=4.4722223281860334 0.44722223281860418 0.89444446563720703 3.1305556297302246 4.4722223281860352
leaf_count=20 2 4 14 20
internal_value=-1.45529 -1.2615 -1.47682 -1.4281
internal_weight=0 1.34167 12.075 7.60278
internal_count=60 6 54 34
is_linear=0
shrinkage=1


Tree=1
num_leaves=6
num_cat=0
split_feature=0 60 8 3 0
split_gain=4.77019 9.64286 4.61409 4.16667 2.05083
threshold=2850.7781907030399 1.0000000180025095e-35 12360.773437190384 41343.91442332368 5623.9571534990064
decision_type=2 2 2 2 2
left_child=1 -1 4 -3 -2
right_child=2 3 -4 -5 -6
leaf_value=-1.7094379124341001 -1.6933088801760359 -1.5427712457674336 -1.3761045791007676 -1.2094379124341006 -1.5844379124341004
leaf_weight=1.2000000178813945 6.2000000923871958 0.60000000894069661 0.60000000894069749 1.000000014901161 2.4000000357627869
leaf_count=6 31 3 3 5 12
internal_value=-1.60944 -1.49515 -1.64422 -1.33444 -1.66293
internal_weight=0 2.8 9.2 1.6 8.6
internal_count=60 14 46 8 43
is_linear=0
shrinkage=1


Tree=2
num_leaves=7
num_cat=0
split_feature=40 47 34 3 27 0
split_gain=12.7648 11.1086 9.25714 2.05714 1.77231 8.88178e-16
threshold=0.044311074815417864 0.0036623863741608938 -0.10350284861363269 65844.746574114324 -0.12879568849806641 4932.4500303888371
decision_type=2 2 2 2 2 2
left_child=4 2 -2 -3 -1 -6
right_child=1 3 -4 -5 5 -7
leaf_value=-1.6957594712879918 -1.4557594657089972 -1.3117594623616 -1.8877594757511875 -1.5997594690563941 -1.8877594757511875 -1.8877594757511875
leaf_weight=0.5208333134651183 0.69444441795349154 0.86805552244186379 1.7361110448837282 0.34722220897674561 4.3402776122093201 1.9097221493721006
leaf_count=3 4 5 10 2 25 11
internal_value=-1.79176 -1.6409 -1.76433 -1.39405 -1.87299 -1.88776
internal_weight=0 3.64583 2.43056 1.21528 6.77083 6.25
internal_count=60 21 14 7 39 36
is_linear=0
shrinkage=1


Tree=3
num_leaves=8
num_cat=0
split_feature=33 14 35 5 0 4 0
split_gain=9.50573 9.62357 8.03452 7.52031 1.76759 1.1784 1.11022e-16
threshold=0.0067318367777154239 879.05579395716802 0.11483784822180002 1737.513354116227 5623.9571534990064 2380.169778377393 4080.768523479192
decision_type=2 2 2 2 2 2 2
left_child=2 6 3 -1 -3 -4 -2
right_child=1 4 5 -5 -6 -7 -8
leaf_value=-1.6315228646339166 -1.6315228646339159 -1.1601644247239673 -1.3958436446789424 -1.3487078006879472 -1.3958436446789422 -1.160164424723968 -1.6315228646339164
leaf_weight=8.2739583849906868 0.4243055582046521 1.2729166746139524 0.42430555820465166 1.0607638955116279 0.42430555820465077 0.42430555820465088 0.42430555820465088
leaf_count=39 2 6 2 5 2 2 2
internal_value=-1.5294 -1.35656 -1.5726 -1.59938 -1.21908 -1.278 -1.63152
internal_weight=0 2.54583 10.1833 9.33472 1.69722 0.848611 0.848611
internal_count=60 12 48 44 8 4 4
is_linear=0
shrinkage=1


Tree=4
num_leaves=7
num_cat=0
split_feature=27 36 56 6 20 0
split_gain=4.94591 7.13572 15.1796 6.41187 1.63265 1.60297
threshold=-0.20776173234442369 -0.029632971063029218 -0.026992373420843704 3466.3129097918354 31276.451321290191 2850.7781907030399
decision_type=2 2 2 2 2 2
left_child=3 2 -2 -1 -3 -5
right_child=1 4 -4 5 -6 -7
leaf_value=-1.7944084776469311 -1.2600856443742428 -1.7944084776469313 -1.7458336746221415 -1.5272470610105873 -1.6163008665560352 -1.260085644374243
leaf_weight=0.56145831942558355 0.93576386570930514 6.1760415136814109 2.0586805045604697 0.37430554628372192 0.56145831942558277 0.56145831942558289
leaf_count=3 5 33 11 2 3 3
internal_value=-1.69645 -1.72248 -1.59404 -1.52725 -1.77957 -1.36695
internal_weight=0 9.73194 2.99444 1.49722 6.7375 0.935764
internal_count=60 52 16 8 36 5
is_linear=0
shrinkage=1


Tree=5
num_leaves=7
num_cat=0
split_feature=57 59 5 18 23 0
split_gain=4.64845 5.6947 5.57387 4.31021 1.74764 0.000351366
threshold=0.00032384552511294733 -0.029333498727225984 1604.673957718566 1687.7272805184473 2658.5197476144408 4080.768523479192
decision_type=2 2 2 2 2 2
left_child=4 2 -2 -3 5 -1
right_child=1 3 -4 -5 -6 -7
leaf_value=-0.10064377269598433 0.22406499935098656 0.071915405063132973 -0.10396697608405148 -0.1032751891239469 0.10146966680965663 -0.10255998694175331
leaf_weight=2.646105259656907 2.4021599441766734 2.7929145991802207 0.660399630665779 2.8246829956769943 0.473431035876274 1.4989887923002241
leaf_count=13 10 12 3 13 2 7
internal_value=0 0.0436299 0.153329 -0.0161753 -0.0805477 -0.101337
internal_weight=0 8.68016 3.06256 5.6176 4.61853 4.14509
internal_count=60 38 13 25 22 20
is_linear=0
shrinkage=0.1


Tree=6
num_leaves=7
num_cat=0
split_feature=50 29 5 44 24 5
split_gain=4.36046 4.98267 5.01631 0.000675695 0.000547975 0.000148826
threshold=0.0012252998339295389 -0.030766179521941089 876.21649047336689 -0.0025017511301563982 697.72262129171372 1366.9184042606487
decision_type=2 2 2 2 2 2
left_child=4 3 -3 -2 -1 -6
right_child=1 2 -4 -5 5 -7
leaf_value=-0.10132415256392686 -0.10184347425087273 -0.024983294437399189 0.15237402413793724 -0.097350451843679062 -0.098870811473509401 -0.097353556946015204
leaf_weight=0.62248955667019013 0.42019921541214023 2.7012295275926581 3.8930949717760086 1.645273134112357 1.1578855663537981 1.4637556970119474
leaf_count=3 2 14 18 9 6 8
internal_value=0 0.0372709 0.0797232 -0.0982645 -0.098657 -0.0980237
internal_weight=0 8.6598 6.59432 2.06547 3.24413 2.62164
internal_count=60 43 32 11 17 14
is_linear=0
shrinkage=0.1


Tree=7
num_leaves=7
num_cat=0
split_feature=40 12 44 44 61 27
split_gain=9.78408 6.03163 4.46129 1.77634 1.75673 0.000214174
threshold=0.044311074815417864 6324.8012018193995 0.00029968309849881476 0.0019224860453797208 0.0059415718989467162 -0.12879568849806641
decision_type=2 2 2 2 2 2
left_child=3 2 -2 5 -3 -1
right_child=1 4 -4 -5 -6 -7
leaf_value=-0.096744734631439622 0.072436769198723078 0.14753862708965923 0.34021758956238962 0.10041474224882448 -0.095386264279957944 -0.094215230146952308
leaf_weight=0.35671845078468312 1.1553974300622942 0.39946164190769184 1.3480678051710127 0.50938671827316273 1.1684219539165495 5.4307025074958801
leaf_count=2 6 2 6 3 7 34
internal_value=0 0.120308 0.216632 -0.0786137 -0.0334944 -0.0943711
internal_weight=0 4.07135 2.50347 6.29681 1.56788 5.78742
internal_count=60 21 12 39 9 36
is_linear=0
shrinkage=0.1


Tree=8
num_leaves=8
num_cat=0
split_feature=33 60 35 5 6 16 25
split_gain=7.30162 6.50276 5.9102 6.13452 1.12232 0.921678 0.000243051
threshold=0.0067318367777154239 7.1548844448388396e-07 0.11483784822180002 1737.513354116227 17347.417825837583 11779.854533854177 2.3407698614902122e-05
decision_type=2 2 2 2 2 2 2
left_child=2 4 3 -1 -2 -4 -3
right_child=1 6 5 -5 -6 -7 -8
leaf_value=-0.099448291078654188 0.10366288241267713 -0.098043084593952196 0.09303801482167022 0.14465162320494632 0.28025793362210272 0.28555284989558477 -0.10155174748748166
leaf_weight=7.6506056487560237 0.47065056860447052 0.37538690865039814 0.49131493270397264 1.1896354258060453 1.5290885120630262 0.50357861816883087 0.41646592319011688
leaf_count=39 2 2 2 5 6 2 2
internal_value=0 0.142654 -0.040594 -0.0665997 0.238695 0.190482 -0.0998884
internal_weight=0 2.79159 9.83513 8.84024 1.99974 0.994894 0.791853
internal_count=60 12 48 44 8 4 4
is_linear=0
shrinkage=0.1


Tree=9
num_leaves=7
num_cat=0
split_feature=35 49 29 5 36 7
split_gain=4.37797 4.72821 3.59756 3.51027 2.44839 1.69325
threshold=-0.63903448567334198 -0.021423764163432144 -0.11881585997198922 1366.9184042606487 -0.029631534693908456 16127.165909003914
decision_type=2 2 2 2 2 2
left_child=2 3 5 -2 -3 -1
right_child=1 4 -4 -5 -6 -7
leaf_value=0.18872408257264739 0.29247436371942265 0.012175708878873323 0.32412945676830379 -0.095473120889927543 -0.096453935681224789 -0.095867760009737693
leaf_weight=0.35061594843864441 0.74514871835708507 3.5874511152505848 0.69638757407665319 0.33950076997280121 4.9208662658929834 0.51782891154289246
leaf_count=2 3 19 3 2 28 3
internal_value=0 -0.0255847 0.154807 0.171045 -0.0506513 0.0190301
internal_weight=0 9.59297 1.56483 1.08465 8.50832 0.868445
internal_count=60 52 8 5 47 5
is_linear=0
shrinkage=0.1


Tree=10
num_leaves=8
num_cat=0
split_feature=13 2 59 14 24 10 1
split_gain=4.01852 4.48959 6.07226 3.10902 4.46646 2.97843 0.0203405
threshold=5451.489134985176 45356.848426980585 -0.029333498727225984 1706.3287489876748 2970.5307264942699 10297.691476002781 23993.731283573969
decision_type=2 2 2 2 2 2 2
left_child=3 2 -2 5 -5 -1 -3
right_child=1 6 -4 4 -6 -7 -8
leaf_value=-0.10155325153354389 0.1832743779727507 0.27308279435107419 -0.099708452008290163 -0.039163565162958082 0.25133532498728023 0.08021272052752669 0.24544375119181355
leaf_weight=5.545837849378584 1.3220218569040296 0.51782548427581765 1.7782362252473842 1.5147974342107775 0.81350135803222645 1.0764787346124647 0.54809698462486267
leaf_count=27 5 2 9 7 3 5 2
internal_value=0 0.0818313 0.020962 -0.0370604 0.062336 -0.0720066 0.258871
internal_weight=0 4.16618 3.10026 8.95062 2.3283 6.62232 1.06592
internal_count=60 18 14 42 10 32 4
is_linear=0
shrinkage=0.1


Tree=11
num_leaves=8
num_cat=0
split_feature=50 29 0 37 62 49 32
split_gain=3.77748 4.05651 3.94563 0.000466183 0.000449907 0.000101827 8.19939e-05
threshold=0.0012252998339295389 -0.030766179521941089 2850.7781907030399 1.0000000180025095e-35 0.0048852710237449392 -0.016886119486328472 0.19653686387545069
decision_type=2 2 2 2 2 2 2
left_child=3 4 -3 5 -2 -1 -5
right_child=1 2 -4 6 -6 -7 -8
leaf_value=-0.096917343689006757 -0.09523625456511553 0.18820427836928003 0.020996111287778778 -0.094656762978578529 -0.099054828182150223 -0.098488700274019098 -0.096433792038885566
leaf_weight=0.89924733340740204 1.5053382515907276 1.9844627380371083 4.8856319338083267 0.98027972877025582 0.38809286057949055 0.76171638071537129 0.35320879518985748
leaf_count=5 9 8 24 6 2 4 2
internal_value=0 0.0335776 0.0692951 -0.09652 -0.0960189 -0.097638 -0.0951275
internal_weight=0 8.76353 6.87009 2.99445 1.89343 1.66096 1.33349
internal_count=60 43 32 17 11 9 8
is_linear=0
shrinkage=0.1


Tree=12
num_leaves=8
num_cat=0
split_feature=40 9 50 30 53 39 3
split_gain=8.13301 3.89898 4.19824 2.68494 0.000350942 0.000129389 2.66602e-05
threshold=1.0000000180025095e-35 25036.705510959164 0.0012760157153579126 -1.0000000180025095e-35 -0.00020367186743477225 0.031447663660976774 65844.746574114324
decision_type=2 2 2 2 2 2 2
left_child=4 2 -2 -3 6 -6 -1
right_child=1 3 -4 -5 5 -7 -8
leaf_value=-0.0957380741405785 -0.011230048689835554 -0.094194220678338353 0.22017957593113296 0.24813191488014846 -0.092897824716858743 -0.091394554476521242 -0.09447279850456676
leaf_weight=0.34336236119270314 1.1611284762620928 1.4231980144977567 2.4136312305927277 0.27307686209678639 3.5728552639484406 0.68182581663131703 0.32335823774337769
leaf_count=2 7 9 10 1 24 5 2
internal_value=0 0.0857697 0.145015 -0.0390844 -0.0929912 -0.0926569 -0.0951244
internal_weight=0 5.27103 3.57476 1.69627 4.9214 4.25468 0.666721
internal_count=60 27 17 10 33 29 4
is_linear=0
shrinkage=0.1


Tree=13
num_leaves=8
num_cat=0
split_feature=33 35 5 14 23 8 49
split_gain=5.45058 4.87243 5.20219 4.75322 0.799548 0.776886 0.000537631
threshold=0.0067318367777154239 0.11483784822180002 1737.513354116227 879.05579395716802 2658.5197476144408 11075.665984479654 -0.016886119486328472
decision_type=2 2 2 2 2 2 2
left_child=1 2 -1 6 -5 -3 -2
right_child=3 5 -4 4 -6 -7 -8
leaf_value=-0.097192040611779412 -0.096022371384224203 0.075677063101667191 0.12195209908713345 0.22333829561445537 0.080350561342093355 0.24677650306632254 -0.10136552107225301
leaf_weight=7.0490081608295405 0.34747597575187683 0.51480144262313909 1.2799374461174009 1.7228353917598727 0.50589537620544422 0.54771792888641357 0.41113366186618927
leaf_count=39 2 2 5 6 2 2 2
internal_value=0 -0.037789 -0.0635154 0.11729 0.190882 0.163877 -0.0989181
internal_weight=0 9.39146 8.32895 2.98734 2.22873 1.06252 0.75861
internal_count=60 48 44 12 8 4 4
is_linear=0
shrinkage=0.1


Tree=14
num_leaves=7
num_cat=0
split_feature=36 27 6 20 29 44
split_gain=3.3328 4.16468 3.63573 3.5063 3.10378 0.928807
threshold=-0.029640478128885244 -0.20776173234442369 35981.730973141304 30129.468373626409 -0.028538372576448309 -1.0000000180025095e-35
decision_type=2 2 2 2 2 2
left_child=2 4 5 -3 -2 -1
right_child=1 3 -4 -5 -6 -7
leaf_value=0.292547019637724 0.19694662814569319 -0.094828778942697006 -0.095597451491473528 0.065463666056017153 -0.095959556089880022 0.11022875136288596
leaf_weight=0.74266159534454335 1.2723485529422758 5.7145474106073371 0.50796271860599507 1.7927772402763364 0.505501389503478 0.44797411561012346
leaf_count=3 5 35 3 9 3 2
internal_value=0 -0.0239591 0.12839 -0.0565503 0.113664 0.22395
internal_weight=0 9.28517 1.6986 7.50732 1.77785 1.19064
internal_count=60 52 8 44 8 5
is_linear=0
shrinkage=0.1


Tree=15
num_leaves=7
num_cat=0
split_feature=57 59 44 18 22 31
split_gain=3.71377 3.75887 3.58082 3.10087 2.22745 0.000859811
threshold=0.00032384552511294733 -0.029333498727225984 0.00097994203357625715 1687.7272805184473 15923.805280741532 -1.0000000180025095e-35
decision_type=2 2 2 2 2 2
left_child=4 2 -2 -3 5 -1
right_child=1 3 -4 -5 -6 -7
leaf_value=-0.096791266434978721 0.17049859591023267 0.05533531852551106 -0.1007197112542996 -0.097848856999094957 0.18181210176568738 -0.10020421473807871
leaf_weight=2.8479444831609726 2.7150323688983913 2.9280361682176581 0.5931405872106551 2.4084161967039108 0.30800220370292652 0.99640128016471985
leaf_count=16 10 12 3 13 1 5
internal_value=0 0.0381198 0.12187 -0.0137989 -0.0769447 -0.0976759
internal_weight=0 8.64463 3.30817 5.33645 4.15235 3.84435
internal_count=60 38 13 25 22 21
is_linear=0
shrinkage=0.1


Tree=16
num_leaves=8
num_cat=0
split_feature=50 32 31 5 37 7 32
split_gain=3.23373 3.26492 5.346 4.39572 0.000245441 8.94926e-05 7.98264e-05
threshold=0.0012252998339295389 0.029061110041697955 0.0093131344652513381 876.21649047336689 1.0000000180025095e-35 54682.065952329576 0.19653686387545069
decision_type=2 2 2 2 2 2 2
left_child=4 3 -3 -2 5 -1 -6
right_child=1 2 -4 -5 6 -7 -8
leaf_value=-0.095662552750011245 -0.098127616902538822 -0.043696745579077004 0.30310061825066481 0.18150035802222528 -0.09287321738106015 -0.093761667012072947 -0.09469754911489156
leaf_weight=1.1962028145790111 0.74242021143436288 5.249718964099884 0.48562428355216969 2.3155091851949692 0.89451992511749245 0.31234037876129139 0.32772235572338104
leaf_count=7 4 28 2 9 6 2 2
internal_value=0 0.0301607 -0.0143326 0.113611 -0.0944156 -0.095269 -0.0933624
internal_weight=0 8.79327 5.73534 3.05793 2.73079 1.50854 1.22224
internal_count=60 43 30 13 17 9 8
is_linear=0
shrinkage=0.1


Tree=17
num_leaves=8
num_cat=0
split_feature=28 3 33 19 12 24 2
split_gain=6.81036 4.27852 3.96889 3.39244 0.000296584 9.75e-05 7.12501e-05
threshold=0.082815873588990105 46642.819326079909 -0.75524707572126404 55710.085364766863 11455.086453526575 2060.6035018097396 45356.848426980585
decision_type=2 2 2 2 2 2 2
left_child=4 2 -2 -3 5 -1 -6
right_child=1 3 -4 -5 6 -7 -8
leaf_value=-0.091652946205407676 -0.1052645817334234 0.21300593884460928 0.23553157079059997 -0.054832618836763394 -0.094592513442101941 -0.090640621098945884 -0.092440207491841619
leaf_weight=2.2108438313007359 0.41426792740821872 0.58533814549446139 1.951552480459213 2.4617378711700439 0.32607266306877125 1.6701084747910497 0.29113489389419556
leaf_count=16 2 2 7 16 2 13 2
internal_value=0 0.0749583 0.175856 -0.00338129 -0.0915411 -0.0912173 -0.0935773
internal_weight=0 5.4129 2.36582 3.04708 4.49816 3.88095 0.617208
internal_count=60 27 9 18 33 29 4
is_linear=0
shrinkage=0.1


Tree=18
num_leaves=8
num_cat=0
split_feature=33 21 60 5 0 13 25
split_gain=4.34308 3.9338 3.75465 2.07361 1.99125 0.635019 0.000513827
threshold=0.0067318367777154239 60610.156932211867 7.1548844448388396e-07 1737.513354116227 4080.768523479192 5451.489134985176 2.3407698614902122e-05
decision_type=2 2 2 2 2 2 2
left_child=1 3 5 -1 -3 -2 -4
right_child=2 4 6 -5 -6 -7 -8
leaf_value=-0.082552232255577507 0.19134410348990583 0.20931895081125781 -0.09459985911174025 0.066413261979751892 -0.092449123337545056 0.065652174013562006 -0.099966857897882275
leaf_weight=6.6751231104135496 1.8232022821903244 0.88397499918937661 0.32611830532550801 1.0865572094917295 0.29053239524364471 0.51562699675559986 0.39377215504646301
leaf_count=39 6 3 2 4 2 2 2
internal_value=0 -0.035889 0.102166 -0.0616986 0.134672 0.163634 -0.0975355
internal_weight=0 8.93619 3.05872 7.76168 1.17451 2.33883 0.71989
internal_count=60 48 12 43 5 8 4
is_linear=0
shrinkage=0.1


Tree=19
num_leaves=8
num_cat=0
split_feature=19 37 2 16 49 44 6
split_gain=2.56699 4.14939 3.33117 2.87418 2.2114 0.797676 0.781724
threshold=57881.842890744156 -0.026989970482672331 47189.481515832253 11779.854533854177 -0.018368119015544807 0.00029968309849881476 36588.079085332363
decision_type=2 2 2 2 2 2 2
left_child=1 5 6 -4 -3 -1 -2
right_child=2 4 3 -5 -6 -7 -8
leaf_value=0.27980140371717122 -0.093723462806912655 0.080018724479758441 0.20641783620886944 -0.094973965022631696 -0.094065476006760698 0.11014761364388884 0.0077569352340324284
leaf_weight=0.76385112106800057 4.2776759117841721 1.5367443412542341 0.88831669092178323 0.49146687984466553 1.3894919455051424 0.43494750559329987 0.92284332215785969
leaf_count=3 28 7 3 3 9 2 5
internal_value=0 0.061551 -0.0390669 0.0990647 -0.00264329 0.218248 -0.0757155
internal_weight=0 4.12503 6.5803 1.37978 2.92624 1.1988 5.20052
internal_count=60 21 39 6 16 5 33
is_linear=0
shrinkage=0.1


Tree=20
num_leaves=7
num_cat=0
split_feature=57 9 47 11 22 26
split_gain=3.17598 3.14594 3.07915 2.5923 1.83632 0.000591344
threshold=0.00032384552511294733 13532.718600328493 0.0027290059649110678 17129.938274962748 15923.805280741532 1.0000000180025095e-35
decision_type=2 2 2 2 2 2
left_child=4 3 -3 -2 5 -1
right_child=1 2 -4 -5 -6 -7
leaf_value=-0.09623155953802788 -0.099728241157975309 -0.099540008968752924 0.15481629183625545 0.043814130736390289 0.15751937392923465 -0.093272878201999837
leaf_weight=2.6030460298061389 2.0945004820823652 0.57549406588077578 2.7510494440793991 3.1506921350955963 0.31242251396179188 0.91227789223194111
leaf_count=15 11 3 10 14 1 6
internal_value=0 0.0347405 0.110812 -0.0135049 -0.0748151 -0.0954637
internal_weight=0 8.57174 3.32654 5.24519 3.82775 3.51532
internal_count=60 38 13 25 22 21
is_linear=0
shrinkage=0.1


Tree=21
num_leaves=8
num_cat=0
split_feature=50 29 56 62 61 7 18
split_gain=2.77509 2.84446 2.72928 0.000228452 0.000185699 0.000118463 3.30699e-05
threshold=0.0012252998339295389 -0.030766179521941089 -0.028160355088643865 0.0048852710237449392 0.0068942095423962712 14007.924314431935 1687.7272805184473
decision_type=2 2 2 2 2 2 2
left_child=4 3 -3 -2 6 -6 -1
right_child=1 2 -4 -5 5 -7 -8
leaf_value=-0.094133156192670153 -0.092103870133234053 -0.096316741322528432 0.079856776133413576 -0.095044276665923466 -0.09345661487482225 -0.091194961919144779 -0.093070261272510557
leaf_weight=0.47841010987758747 1.2784020751714695 1.0277567505836467 6.0901863276958474 0.33307006955146778 0.30729997158050515 0.94010207056999207 0.75415964424610138
leaf_count=3 9 6 26 2 2 7 5
internal_value=0 0.0272584 0.0544192 -0.0927116 -0.0926123 -0.0917521 -0.0934828
internal_weight=0 8.72942 7.11794 1.61147 2.47997 1.2474 1.23257
internal_count=60 43 32 11 17 9 8
is_linear=0
shrinkage=0.1


Tree=22
num_leaves=8
num_cat=0
split_feature=28 27 12 12 8 28 3
split_gain=5.73061 3.43284 2.53003 0.000179142 0.000130483 0.000103834 4.0989e-05
threshold=0.082815873588990105 -0.20776173234442369 9810.6683095646949 11455.086453526575 4700.8566729930344 0.003640505382727277 66609.176680375109
decision_type=2 2 2 2 2 2 2
left_child=3 4 -3 5 -2 -1 -5
right_child=1 2 -4 6 -6 -7 -8
leaf_value=-0.08916428984136282 -0.093400445822778039 0.13586219529881199 -0.091976457292732849 -0.090973950912613302 -0.090969042994965651 -0.090325654173707637 -0.092687023315290218
leaf_weight=1.1353096291422846 0.30645088851451852 3.7782610058784485 0.55956603586673725 0.2650623321533202 0.78896694630384445 2.3914657011628151 0.29526236653327942
leaf_count=10 2 15 4 2 6 19 2
internal_value=0 0.0665278 0.106472 -0.0902157 -0.0916492 -0.0899518 -0.0918767
internal_weight=0 5.43324 4.33783 4.0871 1.09542 3.52678 0.560325
internal_count=60 27 19 33 8 29 4
is_linear=0
shrinkage=0.1


Tree=23
num_leaves=8
num_cat=0
split_feature=33 35 5 14 12 19 0
split_gain=3.49986 3.28903 3.76245 3.0028 0.457696 0.423862 0.000370502
threshold=0.0067318367777154239 0.11483784822180002 1737.513354116227 879.05579395716802 6324.8012018193995 101298.53030007977 4080.768523479192
decision_type=2 2 2 2 2 2 2
left_child=1 2 -1 6 -5 -3 -2
right_child=3 5 -4 4 -6 -7 -8
leaf_value=-0.093482022033832102 -0.093278071977870025 0.18014175653721301 0.088102391343881814 0.05962460955714214 0.1665487898764898 0.05803900556278261 -0.097997750084208662
leaf_weight=5.9185659959912282 0.30498184263706329 0.61643707752227761 1.4136133790016172 0.50927066802978549 1.8715869188308714 0.52764439582824707 0.36585375666618347
leaf_count=39 2 2 5 2 6 2 2
internal_value=0 -0.0338671 -0.0584733 0.0910231 0.143677 0.123829 -0.095852
internal_weight=0 8.47626 7.33218 3.05169 2.38086 1.14408 0.670836
internal_count=60 48 44 12 8 4 4
is_linear=0
shrinkage=0.1


Tree=24
num_leaves=8
num_cat=0
split_feature=34 58 40 19 28 57 39
split_gain=2.20992 2.69034 3.00699 2.50778 4.29984 2.31451 0.00125859
threshold=4.3633509298093304e-06 0.031446565557402259 0.19622059196479377 56569.440660006592 0.0036483237850879016 0.001181146034727026 1.0000000180025095e-35
decision_type=2 2 2 2 2 2 2
left_child=3 2 -2 4 -1 -3 -5
right_child=1 5 -4 6 -6 -7 -8
leaf_value=0.21146386584974755 -0.057704500362456439 0.19783900236734767 0.19119683823489153 -0.089762197259889945 -0.092272242210157632 -0.094847447706888716 -0.093986613447319858
leaf_weight=0.87608310580253579 2.4615563452243809 1.4914582371711729 0.60458907485008229 0.96345737576484713 0.99590311944484711 0.32995246350765217 2.6317196041345596
leaf_count=3 16 5 2 8 7 2 17
internal_value=0 0.0485572 -0.00862561 -0.0439831 0.0498752 0.144818 -0.0928545
internal_weight=0 4.88756 3.06615 5.46716 1.87199 1.82141 3.59518
internal_count=60 25 18 35 10 7 25
is_linear=0
shrinkage=0.1


Tree=25
num_leaves=7
num_cat=0
split_feature=57 47 33 22 52 26
split_gain=2.70237 2.65537 3.54066 1.53704 0.000653949 0.000467177
threshold=0.00032384552511294733 0.0027290059649110678 0.0067318367777154239 15923.805280741532 0.0099495659077724532 1.0000000180025095e-35
decision_type=2 2 2 2 2 2
left_child=3 4 -3 5 -2 -1
right_child=1 2 -4 -5 -6 -7
leaf_value=-0.094207518053414874 -0.093612959170329538 0.088716297081338463 -0.097512672954824631 0.14088212510906997 -0.098009432079671735 -0.091434470209464422
leaf_weight=2.3681947141885775 0.6174820214509944 5.8553109765052795 1.2365109473466871 0.30674538016319264 0.74836310744285583 0.8171601891517638
leaf_count=15 4 23 7 1 4 6
internal_value=0 0.0316559 0.0562459 -0.0729084 -0.0960218 -0.0934961
internal_weight=0 8.45767 7.09182 3.4921 1.36585 3.18535
internal_count=60 38 30 22 8 21
is_linear=0
shrinkage=0.1


Tree=26
num_leaves=8
num_cat=0
split_feature=50 47 18 13 37 56 62
split_gain=2.36147 2.37954 3.94124 2.7611 0.000147917 7.93673e-05 6.30457e-05
threshold=0.0012252998339295389 0.0036407279984880902 2022.679978808555 3448.6106821823182 -1.0000000180025095e-35 -0.028160355088643865 -0.00033526264543798579
decision_type=2 2 2 2 2 2 2
left_child=4 2 -2 -3 6 -6 -1
right_child=1 3 -4 -5 5 -7 -8
leaf_value=-0.091173886311343807 -0.022554876181957312 0.072344578078582134 0.1644483927627412 -0.095261232875501645 -0.089316830137153247 -0.091142484880781457 -0.092660921300132329
leaf_weight=0.80358879268169414 2.1690128073096258 1.604284271597862 2.3460391983389854 2.5375517457723618 0.58345919847488403 0.40232259035110551 0.44189174473285686
leaf_count=6 11 7 9 16 5 3 3
internal_value=0 0.0243981 0.0746128 -0.0303414 -0.0909771 -0.0900619 -0.0917015
internal_weight=0 8.65689 4.51505 4.14184 2.23126 0.985782 1.24548
internal_count=60 43 20 23 17 8 9
is_linear=0
shrinkage=0.1


Tree=27
num_leaves=8
num_cat=0
split_feature=40 52 47 1 58 12 0
split_gain=4.93249 2.11144 2.58472 2.17268 0.000149868 0.000116875 1.59773e-05
threshold=1.0000000180025095e-35 0.0067093657483436936 0.0048355408584742987 25704.089658307985 0.030782931042531814 1946.93466299122 5623.9571534990064
decision_type=2 2 2 2 2 2 2
left_child=4 2 -2 -3 6 -6 -1
right_child=1 3 -4 -5 5 -7 -8
leaf_value=-0.090138695842372427 -0.095039768322238163 0.15849901780986311 0.10361276817418932 -0.091843715403581175 -0.090290340110010289 -0.088624505546147606 -0.091249450496585782
leaf_weight=0.24956325441598926 1.4224108755588534 2.3514547646045689 1.2139680162072179 0.40662764757871617 0.49859259277582202 2.7123058885335922 0.26917512714862823
leaf_count=2 10 9 5 3 4 25 2
internal_value=0 0.0604238 -0.00356664 0.121591 -0.089138 -0.0888832 -0.0907151
internal_weight=0 5.39446 2.63638 2.75808 3.72964 3.2109 0.518738
internal_count=60 27 15 12 33 29 4
is_linear=0
shrinkage=0.1


Tree=28
num_leaves=8
num_cat=0
split_feature=33 21 60 5 29 19 25
split_gain=2.88036 2.81557 2.51025 1.60915 1.1994 0.372887 0.000618505
threshold=0.0067318367777154239 60610.156932211867 7.1548844448388396e-07 1737.513354116227 -1.0000000180025095e-35 59285.981633727475 2.3407698614902122e-05
decision_type=2 2 2 2 2 2 2
left_child=1 3 5 -1 -3 -2 -4
right_child=2 4 6 -5 -6 -7 -8
leaf_value=-0.078293071442199103 0.053141300853679865 -0.089557097432774679 -0.091337209873443972 0.052069762422282062 0.16220619903211661 0.15065725485664538 -0.097676906581853018
leaf_weight=5.6921381279826164 0.49636322259903032 0.2372971773147583 0.27153031527996052 1.1358032822608946 0.93405830860137917 1.8672530353069303 0.3551914244890213
leaf_count=39 2 2 2 4 3 6 2
internal_value=0 -0.0320348 0.0829999 -0.0566077 0.111203 0.130179 -0.0949302
internal_weight=0 7.9993 2.99034 6.82794 1.17136 2.36362 0.626722
internal_count=60 48 12 43 5 8 4
is_linear=0
shrinkage=0.1


Tree=29
num_leaves=8
num_cat=0
split_feature=36 56 27 40 6 20 0
split_gain=1.85862 3.98074 2.98489 1.89647 1.55571 1.11769 0.0917267
threshold=-0.029632971063029218 -0.026992373420843704 -0.20776173234442369 -1.0000000180025095e-35 3466.3129097918354 31276.451321290191 4080.768523479192
decision_type=2 2 2 2 2 2 2
left_child=1 6 4 -3 -2 -4 -1
right_child=2 3 5 -5 -6 -7 -8
leaf_value=0.15942300102868814 -0.092457552553370098 -0.092138833984934387 -0.090848096891020635 0.18174452509616895 0.12819619035518715 0.05375725162456229 0.20978217716614556
leaf_weight=0.93669641017913841 0.41355974227190007 1.4106683135032652 4.1892427057027817 0.30802670121192921 1.4052807837724683 0.61268067359924305 0.5892045795917511
leaf_count=3 3 10 33 1 5 3 2
internal_value=0 0.0613144 -0.031074 -0.0430531 0.0780249 -0.0723978 0.178868
internal_weight=0 3.2446 6.62076 1.7187 1.81884 4.80192 1.5259
internal_count=60 16 44 11 8 36 5
is_linear=0
shrinkage=0.1


Tree=30
num_leaves=7
num_cat=0
split_feature=57 59 27 18 22 26
split_gain=2.29321 2.39119 2.32996 2.15535 1.29278 0.000390404
threshold=0.00032384552511294733 -0.029333498727225984 -0.0051285699989679712 1687.7272805184473 15923.805280741532 1.0000000180025095e-35
decision_type=2 2 2 2 2 2
left_child=4 2 -2 -3 5 -1
right_child=1 3 -4 -5 -6 -7
leaf_value=-0.0924714456618803 0.13001798060500266 0.039730172644218485 -0.098842853406947276 -0.094189590627522413 0.12847297414957445 -0.089787778506895149
leaf_weight=2.1492018178105372 2.8201529085636143 2.9165850430726996 0.52815155684947868 2.0440515130758286 0.29368120431900013 0.72490949928760517
leaf_count=15 10 12 3 13 1 6
internal_value=0 0.0286215 0.0939182 -0.015452 -0.0713739 -0.0917946
internal_weight=0 8.30894 3.3483 4.96064 3.16779 2.87411
internal_count=60 38 13 25 22 21
is_linear=0
shrinkage=0.1


Tree=31
num_leaves=8
num_cat=0
split_feature=50 49 47 34 61 56 13
split_gain=2.03483 2.0817 2.19147 0.00094326 0.000149811 6.77182e-05 4.88465e-05
threshold=0.0012252998339295389 -0.018368119015544807 0.0036407279984880902 -0.10350284861363269 0.0059415718989467162 -0.028160355088643865 4107.8486300673949
decision_type=2 2 2 2 2 2 2
left_child=4 3 -3 -2 6 -6 -1
right_child=1 2 -4 -5 5 -7 -8
leaf_value=-0.089869729636537027 -0.095245899755219243 0.095138823357208857 -0.015838690808931761 -0.089766660931543826 -0.087965148104346136 -0.089533723288644562 -0.091352480450787588
leaf_weight=0.48850667476654175 0.50175483524799347 3.8534483164548865 3.305906854569912 0.84048370271921047 0.51431820541620266 0.59206168353557553 0.4075174480676651
leaf_count=4 3 15 18 7 5 5 3
internal_value=0 0.022468 0.0438938 -0.0918149 -0.0895829 -0.0888045 -0.0905441
internal_weight=0 8.50159 7.15936 1.34224 2.0024 1.10638 0.896024
internal_count=60 43 33 10 17 10 7
is_linear=0
shrinkage=0.1


Tree=32
num_leaves=8
num_cat=0
split_feature=28 27 46 39 60 42 2
split_gain=4.30724 2.30707 1.72968 0.000151481 0.000133762 0.000106338 7.03796e-05
threshold=0.082815873588990105 -0.20776173234442369 -0.0084838111215979079 0.031446249683644123 1.0000000180025095e-35 -1.0000000180025095e-35 45356.848426980585
decision_type=2 2 2 2 2 2 2
left_child=3 5 -3 4 -1 -2 -5
right_child=1 2 -4 6 -6 -7 -8
leaf_value=-0.089317022050729777 -0.08972384217034754 -0.090724629450106786 0.10863819386382045 -0.086530605413865924 -0.087839672741648347 -0.087034641073834795 -0.088361913512943119
leaf_weight=1.3789929598569877 0.7213522344827652 0.4903711974620818 3.8671442270278931 0.60767360031604756 1.103137709200382 0.18468952178955067 0.32056195288896561
leaf_count=12 6 4 15 7 11 2 3
internal_value=0 0.0560142 0.086203 -0.0882529 -0.0886604 -0.0891757 -0.087163
internal_weight=0 5.26356 4.35752 3.41037 2.48213 0.906042 0.928236
internal_count=60 27 19 33 23 8 10
is_linear=0
shrinkage=0.1


Tree=33
num_leaves=8
num_cat=0
split_feature=60 5 24 33 28 4 5
split_gain=2.35123 2.60519 2.20377 1.65246 1.45009 1.22721 0.0151524
threshold=1.0000000180025095e-35 1366.9184042606487 2607.5917244532593 0.0067318367777154239 0.003640505382727277 2380.169778377393 1737.513354116227
decision_type=2 2 2 2 2 2 2
left_child=1 3 -3 -1 5 -2 -6
right_child=4 2 -4 -5 6 -7 -8
leaf_value=-0.091128605140421856 0.13480729998222701 0.13872044138362874 -0.035275285773286966 0.081777236560214517 -0.091258499312783362 -0.092675318553807562 -0.11613692524428453
leaf_weight=1.8254578039050104 0.60316291451454151 2.6911617517471318 0.99783302098512638 0.7927694022655486 2.8381884843111043 0.39080406725406647 0.26792332530021656
leaf_count=14 2 10 5 3 22 3 1
internal_value=0 0.0375125 0.0916565 -0.0387747 -0.0597627 0.0453666 -0.0934044
internal_weight=0 6.30722 3.68899 2.61823 4.10008 0.993967 3.10611
internal_count=60 32 15 17 28 5 23
is_linear=0
shrinkage=0.1


Tree=34
num_leaves=8
num_cat=0
split_feature=34 19 28 58 22 23 12
split_gain=1.57441 1.95744 2.85711 1.68673 2.19741 0.619728 0.00125968
threshold=4.3633509298093304e-06 56569.440660006592 0.0036483237850879016 0.031446565557402259 2612.4484251868757 2185.7679997961618 1946.93466299122
decision_type=2 2 2 2 2 2 2
left_child=1 2 -1 4 -2 -5 -3
right_child=3 6 -4 5 -6 -7 -8
leaf_value=0.16463499151158145 0.087621418452018457 -0.09604195379574354 -0.089988840410863205 0.15621368516042078 -0.090814948881863186 0.030101064953206004 -0.089640100322847693
leaf_weight=0.91758400201797463 1.2883135154843333 0.34768882393837008 0.8479086235165596 1.2312285006046293 1.4864399060606954 0.57007491588592518 2.6498776525259018
leaf_count=3 6 2 7 4 12 3 23
internal_value=0 -0.0411844 0.0423475 0.0409496 -0.00796723 0.116302 -0.0903827
internal_weight=0 4.76306 1.76549 4.57606 2.77475 1.8013 2.99757
internal_count=60 35 10 25 18 7 25
is_linear=0
shrinkage=0.1


Tree=35
num_leaves=8
num_cat=0
split_feature=9 40 10 5 17 28 60
split_gain=1.99094 2.90559 2.14846 2.38499 1.23162 0.268344 0.00658385
threshold=13532.718600328493 0.044311074815417864 6981.1292819032433 1483.4552887656423 1236.0987584734455 0.003640505382727277 1.0000000180025095e-35
decision_type=2 2 2 2 2 2 2
left_child=2 5 6 -4 -3 -2 -1
right_child=1 4 3 -5 -6 -7 -8
leaf_value=-0.090813963704430289 0.060687935579307288 0.13394036771359971 0.068159513594552551 -0.093911773344640959 -0.091814373801112709 0.14706757808657603 -0.10025174155126584
leaf_weight=1.5356872305274012 0.44633980095386583 0.30067056417465199 2.8253241032361984 1.3379539176821706 1.2312986180186269 1.8514879643917082 1.4250960350036619
leaf_count=12 2 1 13 9 9 6 8
internal_value=0 0.0591682 -0.0302366 0.0160746 -0.0475068 0.130289 -0.0953566
internal_weight=0 3.8298 7.12406 4.16328 1.53197 2.29783 2.96078
internal_count=60 18 42 22 10 8 20
is_linear=0
shrinkage=0.1


Tree=36
num_leaves=8
num_cat=0
split_feature=56 29 21 21 32 50 8
split_gain=1.7814 2.05665 1.83391 0.00168605 0.000759193 0.000299675 0.00023915
threshold=-0.028160355088643865 -0.030766179521941089 34743.082228391759 2787.2361116114721 0.036604596802840457 0.001617081528862216 1677.1365029396736
decision_type=2 2 2 2 2 2 2
left_child=3 6 -3 4 -1 -5 -2
right_child=1 2 -4 5 -6 -7 -8
leaf_value=-0.091253219539707164 -0.091018475880700514 0.10615288591802473 0.0012262916318849957 -0.087355117656533754 -0.098260957326483614 -0.090688131641612421 -0.088120244802915804
leaf_weight=0.26173038035631258 0.39234238117933173 2.7561213672161093 4.2104397416114807 0.5756917744874952 0.37767647206783295 0.50762214511632919 1.0378449931740759
leaf_count=2 3 12 21 6 2 4 10
internal_value=0 0.0203136 0.0427375 -0.0913204 -0.0953925 -0.0889169 -0.0889153
internal_weight=0 8.39675 6.96656 1.72272 0.639407 1.08331 1.43019
internal_count=60 46 33 14 4 10 13
is_linear=0
shrinkage=0.1


Tree=37
num_leaves=8
num_cat=0
split_feature=40 58 47 46 12 12 7
split_gain=3.79225 1.59543 2.44669 0.904676 0.000125671 0.000123778 5.88298e-05
threshold=1.0000000180025095e-35 0.03190347581555119 0.0036623863741608938 -0.0084838111215979079 1946.93466299122 11455.086453526575 36418.018912378837
decision_type=2 2 2 2 2 2 2
left_child=4 2 -2 -3 6 -6 -1
right_child=1 3 -4 -5 5 -7 -8
leaf_value=-0.087835882275260985 -0.094579882183523867 -0.086609561423854023 0.080482123006072923 0.15196881465591372 -0.086829978629209825 -0.0888895003714366 -0.08992417393229124
leaf_weight=0.30094425380229983 1.3144211396574976 0.17622549831867207 2.033404253423214 1.6203062459826467 2.2242455407977109 0.33588476479053486 0.24450039118528366
leaf_count=3 10 2 9 6 25 3 2
internal_value=0 0.0525446 0.0117494 0.128566 -0.0873938 -0.0871002 -0.088772
internal_weight=0 5.14436 3.34783 1.79653 3.10557 2.56013 0.545445
internal_count=60 27 19 8 33 28 5
is_linear=0
shrinkage=0.1


Tree=38
num_leaves=8
num_cat=0
split_feature=60 5 52 33 28 7 5
split_gain=1.9661 2.11065 1.92259 1.42367 1.28152 0.283188 0.0103408
threshold=1.0000000180025095e-35 1366.9184042606487 0.0067317939155208265 0.0067318367777154239 0.003640505382727277 55786.516297667797 1737.513354116227
decision_type=2 2 2 2 2 2 2
left_child=1 3 -3 -1 5 -2 -6
right_child=4 2 -4 -5 6 -7 -8
leaf_value=-0.090047133325405551 0.0064864688808118328 0.13956431693926072 -0.0096875575200676325 0.07389624219845152 -0.089931360030756746 0.12572826466347309 -0.11115458029928185
leaf_weight=1.6694857031106951 0.63936304301023517 2.2402685731649403 1.4039444625377653 0.77585022151470173 2.5641970485448842 0.28928029537200928 0.25215476751327504
leaf_count=14 4 8 7 3 22 1 1
internal_value=0 0.0338384 0.0820646 -0.0380316 -0.0582409 0.0436313 -0.0918315
internal_weight=0 6.08955 3.64421 2.44534 3.745 0.928643 2.81635
internal_count=60 32 15 17 28 5 23
is_linear=0
shrinkage=0.1


Tree=39
num_leaves=8
num_cat=0
split_feature=34 19 28 57 58 12 7
split_gain=1.3276 1.74544 2.36871 1.38803 1.51637 0.00105312 0.000247288
threshold=4.3633509298093304e-06 56569.440660006592 0.0036483237850879016 0.001181146034727026 0.031446565557402259 1946.93466299122 37343.155042362967
decision_type=2 2 2 2 2 2 2
left_child=1 2 -1 4 -2 -3 -5
right_child=3 5 -4 6 -6 -7 -8
leaf_value=0.15054218526502849 0.0090591239077261448 -0.09466539001568515 -0.088791750584027329 -0.091111880759709427 0.1396266702221883 -0.088607148607804678 -0.086832233185056548
leaf_weight=0.89991497993469216 2.181035235524178 0.32579085230827365 0.76510614901781082 0.53330931067466725 1.5020513534545896 2.4059829339385033 0.1807854175567627
leaf_count=3 14 2 7 4 5 23 2
internal_value=0 -0.0401402 0.0405641 0.0375686 0.0623077 -0.0893297 -0.0900284
internal_weight=0 4.39679 1.66502 4.39718 3.68309 2.73177 0.714095
internal_count=60 35 10 25 19 25 6
is_linear=0
shrinkage=0.1


Tree=40
num_leaves=8
num_cat=0
split_feature=9 40 10 5 17 42 57
split_gain=1.70226 2.33373 1.90359 1.96652 1.05534 0.247723 0.0052446
threshold=13532.718600328493 0.044311074815417864 6981.1292819032433 1483.4552887656423 1236.0987584734455 0.0058420376932922695 0.00032384552511294733
decision_type=2 2 2 2 2 2 2
left_child=2 5 6 -4 -3 -2 -1
right_child=1 4 3 -5 -6 -7 -8
leaf_value=-0.088287056276696751 0.052171226968258037 0.12481451897804359 0.05996032946212515 -0.092087619174497828 -0.090267410268222104 0.13554899311510896 -0.097349807529212184
leaf_weight=1.038245461881161 0.44404593110084611 0.28766602277755726 2.8465602397918701 1.2131407782435415 1.1022908538579939 1.8041360676288603 1.658663861453533
leaf_count=10 2 1 13 9 9 6 10
internal_value=0 0.0561054 -0.0287376 0.0145246 -0.045754 0.119081 -0.0938609
internal_weight=0 3.63814 6.75661 4.0597 1.38996 2.24818 2.69691
internal_count=60 18 42 22 10 8 20
is_linear=0
shrinkage=0.1


Tree=41
num_leaves=8
num_cat=0
split_feature=50 41 17 48 56 53 10
split_gain=1.61249 1.7878 1.81576 1.41665 0.000177061 8.81814e-05 1.4324e-05
threshold=0.0012252998339295389 1.3315696040227081e-06 2983.0611050903067 -0.030556023522975928 -0.028160355088643865 1.3548336437677965e-06 5000.897034444165
decision_type=2 2 2 2 2 2 2
left_child=4 2 -2 -3 6 -6 -1
right_child=1 3 -4 -5 5 -7 -8
leaf_value=-0.086967136812400148 -0.053533190647099105 0.0032017899990014818 0.058584685022413333 0.17061988696363706 -0.087592987981747805 -0.089408717024281367 -0.085986587150315957
leaf_weight=0.27596055716276158 3.5407022163271886 0.87428408116102252 2.4398303851485252 1.1979896128177641 0.49143230170011587 0.58689949661493301 0.32376532256603241
leaf_count=3 22 5 12 4 5 5 4
internal_value=0 0.0199423 -0.00779335 0.0999869 -0.0878152 -0.0885812 -0.0864378
internal_weight=0 8.05281 5.98053 2.07227 1.67806 1.07833 0.599726
internal_count=60 43 34 9 17 10 7
is_linear=0
shrinkage=0.1


Tree=42
num_leaves=7
num_cat=0
split_feature=28 27 29 61 44 12
split_gain=3.30003 1.67327 1.42116 0.000183833 0.000133183 0.000110388
threshold=0.082815873588990105 -0.20776173234442369 0.033459942503515396 0.0068942095423962712 0.00097994203357625715 11455.086453526575
decision_type=2 2 2 2 2 2
left_child=4 3 -3 -2 5 -1
right_child=1 2 -4 -5 -6 -7
leaf_value=-0.086179223637457281 -0.089859306639875902 0.10815974188450331 -0.024056490921314452 -0.086519237559092091 -0.08899195144165295 -0.087966426558350241
leaf_weight=2.1830920428037652 0.24108452349901188 3.1016801297664642 1.1017352193593977 0.52065233141183853 0.22625495493412007 0.41060141474008549
leaf_count=27 2 13 6 6 2 4
internal_value=0 0.0487926 0.0735052 -0.0875763 -0.0866651 -0.0864622
internal_weight=0 4.96515 4.20342 0.761737 2.81995 2.59369
internal_count=60 27 19 8 33 31
is_linear=0
shrinkage=0.1


Tree=43
num_leaves=8
num_cat=0
split_feature=33 35 5 14 61 2 0
split_gain=1.76651 1.76905 2.34323 1.57367 0.272042 0.247247 0.00115016
threshold=0.0067318367777154239 0.11483784822180002 1737.513354116227 879.05579395716802 0.005847889280287729 46274.387909045319 5623.9571534990064
decision_type=2 2 2 2 2 2 2
left_child=1 2 -1 6 -5 -3 -2
right_child=3 5 -4 4 -6 -7 -8
leaf_value=-0.088821629680370884 -0.088262599404403369 0.13341307161732169 0.05899691973023468 0.035718153380781541 0.12322763792262387 0.034574487182474682 -0.098161180273921067
leaf_weight=4.1689746975898743 0.31120254844427142 0.59590977430343606 1.4437912255525587 0.4487906098365787 1.7042706012725828 0.4399411678314209 0.18847967684268951
leaf_count=39 3 2 5 2 6 2 1
internal_value=0 -0.028638 -0.0507978 0.0678823 0.104987 0.0914349 -0.0919963
internal_weight=0 6.64862 5.61277 2.65274 2.15306 1.03585 0.499682
internal_count=60 48 44 12 8 4 4
is_linear=0
shrinkage=0.1


Tree=44
num_leaves=8
num_cat=0
split_feature=46 58 52 59 19 35 6
split_gain=1.18897 1.48354 1.38525 1.26412 1.21444 0.00036247 0.000327408
threshold=-0.005198974941475123 0.030782931042531814 0.0077997847937690953 -0.029333061963437032 56569.440660006592 -0.014110170611204578 17347.417825837583
decision_type=2 2 2 2 2 2 2
left_child=1 6 -3 4 -2 -5 -1
right_child=3 2 -4 5 -6 -7 -8
leaf_value=-0.090685527780002897 0.098960336344162458 0.12980923852627002 -0.087178566572176278 -0.089578157324399499 -0.029387519113756186 -0.086800779039027137 -0.085901886906527058
leaf_weight=0.2598189860582355 1.0568183511495592 1.732409864664078 0.35439541935920704 1.3990626484155657 2.4378022849559784 0.70753060281276692 0.31843313574790955
leaf_count=2 5 6 4 12 19 8 4
internal_value=0 0.0536841 0.0929589 -0.0274579 0.00942653 -0.0886453 -0.0880513
internal_weight=0 2.66506 2.08681 5.60121 3.49462 2.10659 0.578252
internal_count=60 16 10 44 24 20 6
is_linear=0
shrinkage=0.1


Tree=45
num_leaves=7
num_cat=0
split_feature=57 59 54 5 22 6
split_gain=1.53579 1.70242 1.58476 1.47358 0.912821 0.00192375
threshold=0.00032384552511294733 -0.029333498727225984 -0.0141097919565855 1604.673957718566 15923.805280741532 36588.079085332363
decision_type=2 2 2 2 2 2
left_child=4 3 -3 -2 5 -1
right_child=1 2 -4 -5 -6 -7
leaf_value=-0.087929204397998437 0.10911818210593408 0.02993719285462031 -0.095087339073222643 -0.093298701373862855 0.11158446386635382 -0.098451885010053683
leaf_weight=1.9889966920018203 2.6108893454074864 2.7331385761499405 1.6117076054215429 0.41710707545280445 0.25366821885108937 0.19036744534969319
leaf_count=20 10 14 11 3 1 1
internal_value=0 0.0236746 -0.0164403 0.0812352 -0.0679512 -0.0888484
internal_weight=0 7.37284 4.34485 3.028 2.43303 2.17936
internal_count=60 38 25 13 22 21
is_linear=0
shrinkage=0.1


Tree=46
num_leaves=7
num_cat=0
split_feature=29 56 21 32 45 8
split_gain=1.40092 1.51631 1.46813 0.000639332 0.0001852 0.000116772
threshold=-0.030766179521941089 -0.028160355088643865 34743.082228391759 0.036604596802840457 -0.0038257125694048885 1677.1365029396736
decision_type=2 2 2 2 2 2
left_child=4 3 -3 -2 5 -1
right_child=1 2 -4 -5 -6 -7
leaf_value=-0.088984221151799492 -0.086727183456495854 0.093964025529183162 -0.0016767625138321765 -0.091503723071535301 -0.089926730197496765 -0.086462311936869041
leaf_weight=0.22388551384210575 0.59907922148704418 2.6706782057881364 4.022343710064888 0.52648457139730453 0.24446450918912876 1.0204468145966528
leaf_count=2 7 12 21 4 2 12
internal_value=0 0.0184268 0.0364862 -0.0889614 -0.0874104 -0.0869161
internal_weight=0 7.81859 6.69302 1.12556 1.4888 1.24433
internal_count=60 44 33 11 16 14
is_linear=0
shrinkage=0.1


Tree=47
num_leaves=8
num_cat=0
split_feature=40 12 58 55 12 58 13
split_gain=2.92475 1.30662 0.991082 0.000515788 9.48176e-05 0.000107368 4.71775e-05
threshold=1.0000000180025095e-35 9810.6683095646949 0.03190347581555119 -0.029247900812113713 1946.93466299122 0.030782931042531814 4944.2805093885099
decision_type=2 2 2 2 2 2 2
left_child=4 2 -2 -3 6 -6 -1
right_child=1 3 -4 -5 5 -7 -8
leaf_value=-0.08798891073302241 0.028728991187249059 -0.086386119811920528 0.12968058796253132 -0.092177688441893502 -0.087471082489196328 -0.085406433232215154 -0.085862254076308861
leaf_weight=0.30868808180093799 2.5888996832072735 0.33643424510955811 1.5575635507702825 0.28322517871856678 0.29261891543865237 1.8088706992566583 0.15755520761013031
leaf_count=3 15 4 6 2 3 25 2
internal_value=0 0.0464092 0.0666501 -0.0890332 -0.0859802 -0.0856939 -0.0872703
internal_weight=0 4.76612 4.14646 0.619659 2.56773 2.10149 0.466243
internal_count=60 27 21 6 33 28 5
is_linear=0
shrinkage=0.1


Tree=48
num_leaves=7
num_cat=0
split_feature=60 33 26 17 14 5
split_gain=1.54723 1.65504 1.95554 0.944992 0.249248 0.00620735
threshold=7.1548844448388396e-07 0.0067318367777154239 -0.23748378260671113 38476.183206633214 1052.5052282868717 1737.513354116227
decision_type=2 2 2 2 2 2
left_child=1 2 -1 5 -3 -2
right_child=3 4 -4 -5 -6 -7
leaf_value=0.12421137753814954 -0.088655273280030492 0.030654180913233339 -0.045152235166830673 0.11242989266762238 0.11683573489116944 -0.10598403601735613
leaf_weight=0.85508424043655384 1.9428961202502257 0.42363925278186831 3.3632102236151695 0.25655585527420033 1.6145400404930113 0.23132668435573567
leaf_count=3 20 2 27 1 6 1
internal_value=0 0.0249305 -0.0108208 -0.0690809 0.0989227 -0.090499
internal_weight=0 6.25647 4.21829 2.43078 2.03818 2.17422
internal_count=60 38 30 22 8 21
is_linear=0
shrinkage=0.1


Tree=49
num_leaves=8
num_cat=0
split_feature=34 19 36 57 58 12 9
split_gain=1.05496 1.34954 1.72473 0.999272 1.07166 0.000785295 0.000133625
threshold=4.3633509298093304e-06 56569.440660006592 -0.029631534693908456 0.001181146034727026 0.031446565557402259 1946.93466299122 1262.6355795991058
decision_type=2 2 2 2 2 2 2
left_child=1 2 -1 4 -2 -3 -5
right_child=3 5 -4 6 -6 -7 -8
leaf_value=0.12977583594670439 0.0089575784920564866 -0.092503987216292619 -0.087283966045567873 -0.085010412013642886 0.12328185024440877 -0.086939646726902964 -0.088576605500919767
leaf_weight=0.83610647916793823 2.0391493141651162 0.29057930409908328 0.65116289258003257 0.13850677013397206 1.3713571429252622 1.9947855696082113 0.43522723764181137
leaf_count=3 14 2 7 2 5 23 4
internal_value=0 -0.0393983 0.0347417 0.0343864 0.0549271 -0.0876471 -0.0877157
internal_weight=0 3.77263 1.48727 3.98424 3.41051 2.28536 0.573734
internal_count=60 35 10 25 19 25 6
is_linear=0
shrinkage=0.1


Tree=50
num_leaves=8
num_cat=0
split_feature=9 40 10 5 17 42 60
split_gain=1.29474 1.74337 1.59401 1.54487 0.777338 0.2054 0.00475617
threshold=13532.718600328493 0.044311074815417864 6981.1292819032433 1483.4552887656423 1236.0987584734455 0.0058420376932922695 1.0000000180025095e-35
decision_type=2 2 2 2 2 2 2
left_child=2 5 6 -4 -3 -2 -1
right_child=1 4 3 -5 -6 -7 -8
leaf_value=-0.087486558920164964 0.042540671559802873 0.110471964271668 0.053489558089186678 -0.090122433425944323 -0.088464029102161224 0.12191388399623576 -0.096586839156196203
leaf_weight=1.1217100918293001 0.40459296107292253 0.24968722462654092 2.7020458430051808 1.0363356247544286 0.92068205028772354 1.6789148449897764 1.1768594682216642
leaf_count=12 2 1 13 9 9 6 8
internal_value=0 0.0516402 -0.0266144 0.0136782 -0.0460229 0.106501 -0.0921459
internal_weight=0 3.25388 6.03695 3.73838 1.17037 2.08351 2.29857
internal_count=60 18 42 22 10 8 20
is_linear=0
shrinkage=0.1


Tree=51
num_leaves=8
num_cat=0
split_feature=50 41 6 12 56 53 4
split_gain=1.26643 1.45237 1.60152 1.0841 0.000187197 9.12331e-05 5.28189e-06
threshold=0.0012252998339295389 1.3315696040227081e-06 35055.599431772229 6324.8012018193995 -0.028160355088643865 1.3548336437677965e-06 907.88380219314195
decision_type=2 2 2 2 2 2 2
left_child=4 2 -2 -3 6 -6 -1
right_child=1 3 -4 -5 5 -7 -8
leaf_value=-0.085262309751551968 0.024320663719688437 0.14641571450224813 -0.096168493225561702 -0.0063531152965497027 -0.086098231885460036 -0.088101999563465677 -0.084533088727775318
leaf_weight=0.14473287016153336 4.0152007266879082 1.2710449248552325 1.5210557505488393 0.7320495918393134 0.40289354324340798 0.521141417324543 0.31661709770560265
leaf_count=2 24 5 10 4 5 5 5
internal_value=0 0.0176175 -0.00878306 0.0905849 -0.086407 -0.0872283 -0.0847619
internal_weight=0 7.53935 5.53626 2.00309 1.38538 0.924035 0.46135
internal_count=60 43 34 9 17 10 7
is_linear=0
shrinkage=0.1


Tree=52
num_leaves=7
num_cat=0
split_feature=28 27 29 61 44 24
split_gain=2.57105 1.27006 1.06434 0.000172378 0.000133531 7.1557e-05
threshold=0.082815873588990105 -0.20776173234442369 0.033459942503515396 0.0068942095423962712 0.00097994203357625715 1576.2648018957486
decision_type=2 2 2 2 2 2
left_child=4 3 -3 -2 5 -1
right_child=1 2 -4 -5 -6 -7
leaf_value=-0.085891890022797457 -0.08871927605811003 0.095866883285664214 -0.02249290595779161 -0.085265621833977512 -0.087914938180415736 -0.084723839063064355
leaf_weight=0.92555217072367746 0.2180643007159232 2.896698616445065 1.0298628211021421 0.42850170657038689 0.20281998068094242 1.2103361152112482
leaf_count=12 2 13 6 6 2 19
internal_value=0 0.0434385 0.0648233 -0.0864304 -0.0854628 -0.08523
internal_weight=0 4.57313 3.92656 0.646566 2.33871 2.13589
internal_count=60 27 19 8 33 31
is_linear=0
shrinkage=0.1


Tree=53
num_leaves=8
num_cat=0
split_feature=40 26 61 39 60 2 4
split_gain=1.45287 1.71943 1.19088 1.18731 1.17942 0.753599 0.000116062
threshold=-0.029333231461233622 -0.23748378260671113 0.005847889280287729 0.031447663660976774 -1.0000000180025095e-35 45356.848426980585 1634.9053028295382
decision_type=2 2 2 2 2 2 2
left_child=2 4 6 -3 -2 -4 -1
right_child=1 3 5 -5 -6 -7 -8
leaf_value=-0.089125048691577807 0.11628712248949279 -0.092228533290842851 0.12118943008328963 0.046525725408343377 -0.09098533409488635 -0.0092464383066098305 -0.085978123663769904
leaf_weight=0.22902639210224185 1.0594559013843534 3.1876251325011258 1.7047654837369921 0.76462552696466435 0.37054304778575886 0.5984283573925494 0.24002175778150558
leaf_count=2 4 32 7 4 3 5 3
internal_value=0 -0.0313862 0.0577214 -0.0653843 0.0625784 0.0872989 -0.0875147
internal_weight=0 5.38225 2.77224 3.95225 1.43 2.30319 0.469048
internal_count=60 43 17 36 7 12 5
is_linear=0
shrinkage=0.1


Tree=54
num_leaves=8
num_cat=0
split_feature=46 58 52 59 54 35 6
split_gain=0.955411 1.11297 1.00254 0.999235 1.03009 0.000215069 0.000158735
threshold=-0.005198974941475123 0.030782931042531814 0.0077997847937690953 -0.029333061963437032 -0.0141097919565855 -0.014110170611204578 17347.417825837583
decision_type=2 2 2 2 2 2 2
left_child=1 6 -3 4 -2 -5 -1
right_child=3 2 -4 5 -6 -7 -8
leaf_value=-0.088329223608748925 -0.05447300979852665 0.11776669541270271 -0.085607304384334684 -0.087811113507044528 0.05959091231040059 -0.085449777606695837 -0.084631154419021026
leaf_weight=0.21339820325374637 1.4683565162122247 1.5661076903343198 0.28677105903625477 1.1750089451670644 1.7181433849036696 0.57419943064451207 0.25449531897902489
leaf_count=2 14 6 4 12 10 8 4
internal_value=0 0.0514907 0.0862904 -0.0263071 0.00702964 -0.087036 -0.0863178
internal_weight=0 2.32077 1.85288 4.93571 3.1865 1.74921 0.467894
internal_count=60 16 10 44 24 20 6
is_linear=0
shrinkage=0.1


Tree=55
num_leaves=7
num_cat=0
split_feature=13 14 14 59 1 59
split_gain=1.15622 1.07321 1.41162 1.00329 0.935563 0.000188281
threshold=5451.489134985176 1.0000000180025095e-35 1706.3287489876748 -0.028883368649841975 3256.4565604640602 -0.023151631047333986
decision_type=2 2 2 2 2 2
left_child=1 -1 -3 4 -2 -5
right_child=3 2 -4 5 -6 -7
leaf_value=0.15495148324585009 -0.088323334270490994 -0.072452679472085002 0.035326339889732092 -0.090544574340113607 0.097741998453025378 -0.086006649471277244
leaf_weight=0.31216827034950245 0.30711563676595766 3.5674456432461739 1.8430055789649484 0.12861873209476471 2.2503531128168106 0.31622330099344242
leaf_count=1 3 31 10 1 10 4
internal_value=0 -0.0253369 -0.035739 0.051289 0.0753982 -0.0873187
internal_weight=0 5.72262 5.41045 3.00231 2.55747 0.444842
internal_count=60 42 41 18 13 5
is_linear=0
shrinkage=0.1


Tree=56
num_leaves=8
num_cat=0
split_feature=29 56 6 50 4 9 14
split_gain=1.14 1.17477 1.17274 0.000429139 0.000120103 0.000113393 1.2168e-05
threshold=-0.030766179521941089 -0.028160355088643865 35055.599431772229 0.0012760157153579126 2564.9587969006757 1262.6355795991058 1320.9584892789555
decision_type=2 2 2 2 2 2 2
left_child=4 3 -3 -2 5 -1 -6
right_child=1 2 -4 -5 6 -7 -8
leaf_value=-0.085374544206253247 -0.08422249042838674 0.062805619894091599 -0.028582186841764719 -0.088822135579776335 -0.085182878946749072 -0.087623972511518239 -0.083920839092254604
leaf_weight=0.36109064891934373 0.29574773088097472 4.2151210531592378 2.105631984770298 0.6456700935959816 0.14081914722919464 0.59069535881280899 0.16699292883276939
leaf_count=5 5 21 12 6 2 6 3
internal_value=0 0.0168395 0.0323616 -0.0873772 -0.0862153 -0.0867706 -0.0844982
internal_weight=0 7.26217 6.32075 0.941418 1.2596 0.951786 0.307812
internal_count=60 44 33 11 16 11 5
is_linear=0
shrinkage=0.1


Tree=57
num_leaves=7
num_cat=0
split_feature=28 9 4 19 44 24
split_gain=2.2712 1.13093 1.06434 0.672556 0.00010537 6.24961e-05
threshold=0.082815873588990105 25036.705510959164 2564.9587969006757 55710.085364766863 0.00097994203357625715 1576.2648018957486
decision_type=2 2 2 2 2 2
left_child=4 2 -2 -3 5 -1
right_child=1 3 -4 -5 -6 -7
leaf_value=-0.08532474992528559 0.091147307302987174 0.10515941506155164 -0.087516190385485623 -0.088443620932327133 -0.087169335769601786 -0.084178154151955259
leaf_weight=0.84856310859322581 2.8998713828623299 0.22751194238662698 0.37675386667251576 0.84910539165139198 0.18687190860509861 1.0808930806815622
leaf_count=12 13 1 4 9 2 19
internal_value=0 0.0413876 0.0706042 -0.0475312 -0.084902 -0.0846824
internal_weight=0 4.35324 3.27663 1.07662 2.11633 1.92946
internal_count=60 27 17 10 33 31
is_linear=0
shrinkage=0.1


Tree=58
num_leaves=8
num_cat=0
split_feature=40 26 39 50 61 2 4
split_gain=1.18288 1.41725 1.06489 1.02407 0.999975 0.648246 9.91797e-05
threshold=-0.029333231461233622 -0.23748378260671113 0.031447663660976774 0.001617081528862216 0.005847889280287729 45356.848426980585 1634.9053028295382
decision_type=2 2 2 2 2 2 2
left_child=4 3 -3 -2 6 -6 -1
right_child=1 2 -4 -5 5 -7 -8
leaf_value=-0.0884081681001994 0.11009390072155573 -0.090843428399772774 0.044023779244695943 -0.090181455715754075 0.11186690927073915 -0.011069511963553342 -0.085376684893005261
leaf_weight=0.21473389863967929 0.97835130989551522 2.857037760317326 0.7363387644290923 0.34547021985054016 1.6293464452028277 0.58218007907271374 0.21696799620985985
leaf_count=2 4 32 4 3 7 5 3
internal_value=0 -0.0306213 -0.063207 0.0578292 0.0523289 0.0795041 -0.0868846
internal_weight=0 4.9172 3.59338 1.32382 2.64323 2.21153 0.431702
internal_count=60 43 36 7 17 12 5
is_linear=0
shrinkage=0.1


Tree=59
num_leaves=8
num_cat=0
split_feature=46 58 59 52 24 35 6
split_gain=0.849804 0.931723 0.888555 0.864639 0.854603 0.000153806 0.000103071
threshold=-0.005198974941475123 0.030782931042531814 -0.029333061963437032 0.0077997847937690953 1263.1786926680809 -0.014110170611204578 17347.417825837583
decision_type=2 2 2 2 2 2 2
left_child=1 6 4 -3 -2 -4 -1
right_child=2 3 5 -5 -6 -7 -8
leaf_value=-0.08712740580568662 0.076769551152207613 0.11251492752743331 -0.086998524595214177 -0.085010436585319732 -0.033608006766281562 -0.084898607820858382 -0.083937177848803612
leaf_weight=0.18778040260076556 1.0929279476404192 1.4668046236038206 1.0702991448342798 0.26105017587542523 1.9583838842809198 0.51740888506174076 0.21982990577816963
leaf_count=2 6 6 12 4 18 8 4
internal_value=0 0.0505898 -0.0256424 0.0826721 0.00592736 -0.0863142 -0.0854069
internal_weight=0 2.13547 4.63902 1.72785 3.05131 1.58771 0.40761
internal_count=60 16 44 10 24 20 6
is_linear=0
shrinkage=0.1


Tree=60
num_leaves=7
num_cat=0
split_feature=57 59 54 27 22 6
split_gain=1.07432 1.19405 1.15678 0.99895 0.691039 0.00225463
threshold=0.00032384552511294733 -0.029333498727225984 -0.0141097919565855 -0.0051285699989679712 15923.805280741532 36588.079085332363
decision_type=2 2 2 2 2 2
left_child=4 3 -3 -2 5 -1
right_child=1 2 -4 -5 -6 -7
leaf_value=-0.085833326471671328 0.09530976494633496 0.025255419466115814 -0.091810453705907846 -0.090399765142007871 0.10291402596128796 -0.097561585865256123
leaf_weight=1.4685815647244451 2.3290269076824193 2.4220803901553154 1.2956046089529998 0.3307900801300997 0.21634769439697255 0.18450407683849324
leaf_count=20 10 14 11 3 1 1
internal_value=0 0.0210578 -0.0155418 0.0722139 -0.0651473 -0.0871423
internal_weight=0 6.3775 3.71768 2.65982 1.86943 1.65309
internal_count=60 38 25 13 22 21
is_linear=0
shrinkage=0.1


Tree=61
num_leaves=8
num_cat=0
split_feature=50 32 7 8 56 29 4
split_gain=1.01091 1.08909 1.98346 1.30912 0.000158438 7.68403e-05 2.99003e-06
threshold=0.0012252998339295389 0.029061110041697955 37343.155042362967 1677.1365029396736 -0.028160355088643865 -0.11881585997198922 2564.9587969006757
decision_type=2 2 2 2 2 2 2
left_child=4 3 -3 -2 6 -6 -1
right_child=1 2 -4 -5 5 -7 -8
leaf_value=-0.083840448584291183 -0.094450406050283389 0.043076040383860897 -0.093053818088585316 0.098412394737871139 -0.083584466037941077 -0.08652097408674761 -0.083248715498533549
leaf_weight=0.21804291382431984 0.42000290751457248 2.5260595679283142 1.8572816140949724 2.1722195222973824 0.10230803117156029 0.69076212495565392 0.14036526903510094
leaf_count=4 3 15 15 10 2 8 3
internal_value=0 0.0157821 -0.014604 0.0671639 -0.0853536 -0.0861422 -0.0836087
internal_weight=0 6.97556 4.38334 2.59222 1.15148 0.79307 0.358408
internal_count=60 43 30 13 17 10 7
is_linear=0
shrinkage=0.1


Tree=62
num_leaves=7
num_cat=0
split_feature=28 9 14 19 44 24
split_gain=2.011 0.959502 0.758569 0.57076 8.97206e-05 4.17874e-05
threshold=0.082815873588990105 25036.705510959164 1.0000000180025095e-35 55710.085364766863 0.00097994203357625715 1576.2648018957486
decision_type=2 2 2 2 2 2
left_child=4 2 -2 -3 5 -1
right_child=1 3 -4 -5 -6 -7
leaf_value=-0.084766595692290142 -0.10648944680900407 0.10076595252325665 0.080904268617298325 -0.08748727222922914 -0.086592150783120284 -0.083780080581492125
leaf_weight=0.76227186247706391 0.23359297215938601 0.20451457798480976 2.870738297700882 0.75785836949944496 0.17400179803371418 0.98319306597113609
leaf_count=12 1 1 16 9 2 19
internal_value=0 0.0397582 0.0668034 -0.0474814 -0.0844268 -0.0842109
internal_weight=0 4.0667 3.10433 0.962373 1.91947 1.74546
internal_count=60 27 17 10 33 31
is_linear=0
shrinkage=0.1


Tree=63
num_leaves=8
num_cat=0
split_feature=62 5 50 47 6 1 5
split_gain=1.00804 1.32778 1.36049 1.03311 0.789065 0.0320247 0.0150502
threshold=-0.00033526264543798579 1737.513354116227 0.0012257204854147017 0.0036623863741608938 17347.417825837583 23120.46160795385 1737.513354116227
decision_type=2 2 2 2 2 2 2
left_child=1 2 -1 6 -5 -3 -2
right_child=3 5 -4 4 -6 -7 -8
leaf_value=0.049360923971415588 -0.087908951373617289 0.14056273331851896 -0.085695797234907486 -0.084668362589478074 0.10171348041163555 0.10550006698507924 -0.10908045199314541
leaf_weight=1.8990582153201105 1.3690195456147196 0.61049675941467263 1.2282840088009832 0.35618412867188443 0.62699341773986816 0.45436419546604156 0.4448789358139037
leaf_count=13 15 2 17 6 3 2 2
internal_value=0 0.0291563 -0.00368348 -0.0483578 0.0341913 0.125602 -0.0931015
internal_weight=0 4.1922 3.12734 2.79708 0.983178 1.06486 1.8139
internal_count=60 34 30 26 9 4 17
is_linear=0
shrinkage=0.1


Tree=64
num_leaves=8
num_cat=0
split_feature=46 59 54 58 52 35 6
split_gain=0.740983 0.782262 0.786372 0.780568 0.751365 0.000110541 6.25223e-05
threshold=-0.005198974941475123 -0.029333061963437032 -0.0141097919565855 0.030782931042531814 0.0077997847937690953 -0.014107770119944187 17347.417825837583
decision_type=2 2 2 2 2 2 2
left_child=3 2 -2 6 -5 -3 -1
right_child=1 5 -4 4 -6 -7 -8
leaf_value=-0.086052650697484814 -0.053173467726095158 -0.085994020019538736 0.050849931877383771 0.1079043836434618 -0.084524826394334729 -0.083731091443504768 -0.083391419614291709
leaf_weight=0.16347078979015339 1.3047452792525289 1.155651122331619 1.6403772234916685 1.3612519055604932 0.23845800757408131 0.26544645801186595 0.19193517416715622
leaf_count=2 14 15 10 6 4 5 4
internal_value=0 -0.0246369 0.00476559 0.0494378 0.0792203 -0.0855713 -0.0846155
internal_weight=0 4.36622 2.94512 1.95512 1.59971 1.4211 0.355406
internal_count=60 44 24 16 10 20 6
is_linear=0
shrinkage=0.1


Tree=65
num_leaves=7
num_cat=0
split_feature=33 57 47 30 31 34
split_gain=0.937595 1.02554 1.28345 0.595557 0.00264852 0.000230596
threshold=0.0067318367777154239 0.00032384552511294733 0.0027290059649110678 -0.01736524687242132 0.0093131344652513381 0.0027556129954541177
decision_type=2 2 2 2 2 2
left_child=1 3 -3 -1 5 -2
right_child=4 2 -4 -5 -6 -7
leaf_value=-0.086867988673220084 -0.087370809239471853 -0.087450492221284246 0.054883014746953007 0.099802411150600456 -0.099197103590806621 -0.08374639223897748
leaf_weight=1.2180038318037985 0.55072710663080193 0.73573269695043553 4.5604842454195023 0.19880899786949147 0.19509120285511017 0.25767050310969353
leaf_count=16 6 8 23 1 1 5
internal_value=0 0.0148948 0.0351105 -0.0606742 -0.0887393 -0.0862156
internal_weight=0 6.71303 5.29622 1.41681 1.00349 0.808398
internal_count=60 48 31 17 12 11
is_linear=0
shrinkage=0.1


Tree=66
num_leaves=7
num_cat=0
split_feature=49 23 24 6 23 53
split_gain=0.918498 0.946829 1.07523 0.888963 0.00105389 0.000126255
threshold=-0.018368119015544807 1967.6429918402848 2607.5917244532593 17347.417825837583 1.0000000180025095e-35 -0.0017162251248640404
decision_type=2 2 2 2 2 2
left_child=4 2 -2 -3 -1 -6
right_child=1 3 -4 -5 5 -7
leaf_value=-0.0942089021670795 0.0076809138496225894 0.04475461208360635 0.11256008008503629 -0.089646517903824038 -0.083699426068622129 -0.086247774065090127
leaf_weight=0.16009458899497964 3.0892379097640514 0.77868625521659884 1.4300121665000913 1.3372945636510847 0.29566309228539467 0.56773845851421356
leaf_count=1 20 6 7 13 6 7
internal_value=0 0.0150193 0.0408675 -0.0401866 -0.0867569 -0.0853751
internal_weight=0 6.63523 4.51925 2.11598 1.0235 0.863402
internal_count=60 46 27 19 14 13
is_linear=0
shrinkage=0.1


Tree=67
num_leaves=7
num_cat=0
split_feature=40 9 52 30 60 24
split_gain=1.78173 0.818699 0.573487 0.485226 5.37824e-05 3.87095e-05
threshold=1.0000000180025095e-35 25036.705510959164 0.0067093657483436936 1.0000000180025095e-35 -0.0038336501410520759 1576.2648018957486
decision_type=2 2 2 2 2 2
left_child=4 2 -2 -3 -1 -6
right_child=1 3 -4 -5 5 -7
leaf_value=-0.085415929586982575 0.0037592475560141343 -0.086658757921019236 0.09575595004373183 0.097206335759993379 -0.084435604114983798 -0.083377720589964552
leaf_weight=0.22250770032405842 1.0500189289450652 0.67773040011525143 1.9105330184102056 0.18209551274776459 0.5344562269747255 0.98038862086832523
leaf_count=3 8 9 9 1 9 21
internal_value=0 0.0381799 0.0631275 -0.0477195 -0.0839642 -0.083751
internal_weight=0 3.82038 2.96055 0.859826 1.73735 1.51484
internal_count=60 27 17 10 33 30
is_linear=0
shrinkage=0.1


Tree=68
num_leaves=8
num_cat=0
split_feature=62 50 20 47 6 5 1
split_gain=0.88994 1.10962 1.08441 0.916135 0.67746 0.0112933 7.59249e-05
threshold=-0.00033526264543798579 0.0012760157153579126 30129.468373626409 0.0036623863741608938 17347.417825837583 1737.513354116227 23120.46160795385
decision_type=2 2 2 2 2 2 2
left_child=1 2 -1 5 -5 -2 -3
right_child=3 6 -4 4 -6 -7 -8
leaf_value=0.077009960256169796 -0.087012151865974038 -0.083622209795209262 -0.086286361967818651 -0.0841143867390063 0.098782222454678131 -0.1060662932447025 -0.085780048120348951
leaf_weight=2.7524242773652086 1.2427401393651965 0.25276909768581379 0.47716980054974545 0.31316388398408879 0.57322439551353455 0.41490948200225819 0.45944294333457947
leaf_count=17 15 5 6 6 3 2 6
internal_value=0 0.0279676 0.0528831 -0.0478997 0.0341643 -0.0917814 -0.0850142
internal_weight=0 3.94181 3.22959 2.54404 0.886388 1.65765 0.712212
internal_count=60 34 23 26 9 17 11
is_linear=0
shrinkage=0.1


Tree=69
num_leaves=7
num_cat=0
split_feature=35 56 36 53 62 14
split_gain=0.649544 0.973912 2.51263 0.46353 0.360829 0.155487
threshold=-0.63903448567334198 -0.026992373420843704 -0.029631534693908456 -0.0017162251248640404 -0.0034914992029265947 1642.0701441045442
decision_type=2 2 2 2 2 2
left_child=4 2 -2 -3 -1 -6
right_child=1 3 -4 -5 5 -7
leaf_value=-0.085138844770639821 0.11178181182637155 0.063621486975219771 -0.085353373982126807 -0.08609291765260943 0.1102942382593351 0.025998685720376925
leaf_weight=0.14176329970359791 1.4245110303163531 0.23279639333486546 1.1838740482926362 1.8518744781613357 0.72710439562797524 0.31302220746874809
leaf_count=2 6 2 19 25 3 3
internal_value=0 -0.0184178 0.0223076 -0.0693742 0.0645272 0.0849258
internal_weight=0 4.69306 2.60839 2.08467 1.18189 1.04013
internal_count=60 52 25 27 8 6
is_linear=0
shrinkage=0.1


Tree=70
num_leaves=8
num_cat=0
split_feature=9 10 40 5 17 42 60
split_gain=0.840601 1.12845 1.06853 1.04783 0.499267 0.0994037 0.00288989
threshold=13532.718600328493 6981.1292819032433 0.044311074815417864 1483.4552887656423 1236.0987584734455 0.0058420376932922695 1.0000000180025095e-35
decision_type=2 2 2 2 2 2 2
left_child=1 6 5 -3 -4 -2 -1
right_child=2 3 4 -5 -6 -7 -8
leaf_value=-0.084807555680798133 0.042845525884339423 0.047043303907812084 0.098402020804418136 -0.087363088172076844 -0.085984822719395407 0.10604103709701512 -0.093190855475119391
leaf_weight=0.72822660952806451 0.30464268475770984 2.2684795111417775 0.19004543125629414 0.77928537502884854 0.64608549699187279 1.3603645563125608 0.94454218819737434
leaf_count=12 2 13 1 9 9 6 8
internal_value=0 -0.0235452 0.0481598 0.0126768 -0.0440753 0.0944783 -0.0895413
internal_weight=0 4.72053 2.50114 3.04776 0.836131 1.66501 1.67277
internal_count=60 42 18 22 10 8 20
is_linear=0
shrinkage=0.1


Tree=71
num_leaves=8
num_cat=0
split_feature=50 41 6 12 46 56 22
split_gain=0.806885 0.856231 1.01136 0.646007 8.46292e-05 3.81159e-05 3.09662e-06
threshold=0.0012252998339295389 1.3315696040227081e-06 35055.599431772229 6324.8012018193995 -0.0084838111215979079 -0.028160355088643865 2612.4484251868757
decision_type=2 2 2 2 2 2 2
left_child=4 2 -2 -3 6 -6 -1
right_child=1 3 -4 -5 5 -7 -8
leaf_value=-0.082520163498002702 0.018604636579868449 0.11661533456719247 -0.090812863413206879 -0.010369048381416425 -0.082998595880923703 -0.085273047669933155 -0.083190722033788508
leaf_weight=0.11015874892473221 3.3815202862024307 1.1712715178728101 1.1260604374110696 0.60888872668147076 0.084552142769098282 0.57303844392299641 0.18372854962944984
leaf_count=3 24 5 10 4 2 8 4
internal_value=0 0.0144608 -0.00872948 0.0731814 -0.0843501 -0.0849806 -0.0829394
internal_weight=0 6.28774 4.50758 1.78016 0.951478 0.657591 0.293887
internal_count=60 43 34 9 17 10 7
is_linear=0
shrinkage=0.1


Tree=72
num_leaves=7
num_cat=0
split_feature=28 27 29 44 61 24
split_gain=1.57767 0.784933 0.606838 0.000128371 3.48922e-05 3.31013e-05
threshold=0.082815873588990105 -0.20776173234442369 0.033459942503515396 0.00097994203357625715 0.0068942095423962712 1576.2648018957486
decision_type=2 2 2 2 2 2
left_child=3 4 -3 5 -2 -1
right_child=1 2 -4 -5 -6 -7
leaf_value=-0.083898900773973384 -0.085653436107767156 0.08083073427667016 -0.019324409522018242 -0.086322360044540913 -0.08381357147003006 -0.082920945479967367
leaf_weight=0.62744966335594632 0.15387004613876376 2.3153856210410599 0.81892662495374668 0.16329217702150334 0.31224625185132027 0.77187152393162251
leaf_count=12 2 13 6 2 6 19
internal_value=0 0.0366565 0.0546624 -0.0836691 -0.0844209 -0.0833595
internal_weight=0 3.60043 3.13431 1.56261 0.466116 1.39932
internal_count=60 27 19 33 8 31
is_linear=0
shrinkage=0.1


Tree=73
num_leaves=8
num_cat=0
split_feature=62 5 59 47 6 1 5
split_gain=0.779449 1.00065 1.02287 0.775219 0.58988 0.0145539 0.00698028
threshold=-0.00033526264543798579 1737.513354116227 -0.029333061963437032 0.0036623863741608938 17347.417825837583 23120.46160795385 1737.513354116227
decision_type=2 2 2 2 2 2 2
left_child=1 2 -1 6 -5 -3 -2
right_child=3 5 -4 4 -6 -7 -8
leaf_value=-0.084742164365058908 -0.086178964723259643 0.12457593852660687 0.042529124812186403 -0.08379699872339165 0.095893698225770208 0.099504313443758083 -0.10194274365346828
leaf_weight=0.99979806691408213 1.1183555461466315 0.57100948691368092 1.7141469456255436 0.28352121636271466 0.51368758082389832 0.38944581151008606 0.37512046098709095
leaf_count=16 15 2 14 6 3 2 2
internal_value=0 0.0266878 -0.00435671 -0.0476357 0.0319881 0.11441 -0.0901384
internal_weight=0 3.6744 2.71395 2.29068 0.797209 0.960455 1.49348
internal_count=60 34 30 26 9 4 17
is_linear=0
shrinkage=0.1


Tree=74
num_leaves=8
num_cat=0
split_feature=46 15 5 58 52 2 6
split_gain=0.601617 0.624835 0.8696 0.588555 0.558519 0.072843 2.28943e-05
threshold=-0.005198974941475123 77316.513542460365 1483.4552887656423 0.030782931042531814 0.0077997847937690953 5274.572244881042 17347.417825837583
decision_type=2 2 2 2 2 2 2
left_child=3 2 -2 6 -5 -3 -1
right_child=1 5 -4 4 -6 -7 -8
leaf_value=-0.084518841175263801 -0.085764681509680279 0.11218393531884346 0.020732295048056903 0.10135408849241492 -0.083558969445916689 0.040051683948977929 -0.082702161805495805
leaf_weight=0.12642686441540707 1.8440363220870502 0.25572773814201344 1.312433276325464 1.173709988594055 0.18975123204290856 0.30936431512236595 0.15371022559702396
leaf_count=2 27 1 13 6 4 3 4
internal_value=0 -0.0241469 -0.0414841 0.0484956 0.07562 0.0726945 -0.083522
internal_weight=0 3.72156 3.15647 1.6436 1.36346 0.565092 0.280137
internal_count=60 44 40 16 10 4 6
is_linear=0
shrinkage=0.1


Tree=75
num_leaves=7
num_cat=0
split_feature=33 57 47 30 31 12
split_gain=0.746462 0.800921 0.946554 0.468569 0.00167525 0.00015901
threshold=0.0067318367777154239 0.00032384552511294733 0.0027290059649110678 -0.01736524687242132 0.0093131344652513381 6324.8012018193995
decision_type=2 2 2 2 2 2
left_child=1 3 -3 -1 5 -2
right_child=4 2 -4 -5 -6 -7
leaf_value=-0.085873425105462017 -0.086755529699573133 -0.08584407098299919 0.049349488682341257 0.095087031488434601 -0.096146291736661435 -0.083634894698700946
leaf_weight=1.0042860656976698 0.31217001378536213 0.59248926118016232 4.1129292584955692 0.16686344146728505 0.17466573417186737 0.34234977886080742
leaf_count=16 4 8 23 1 1 7
internal_value=0 0.0139085 0.0323264 -0.0600905 -0.0874452 -0.0851233
internal_weight=0 5.87657 4.70542 1.17115 0.829186 0.65452
internal_count=60 48 31 17 12 11
is_linear=0
shrinkage=0.1


Tree=76
num_leaves=7
num_cat=0
split_feature=49 52 15 19 23 42
split_gain=0.754797 0.786289 0.97132 0.00101846 0.000891254 9.30703e-05
threshold=-0.018368119015544807 0.0058328107724790945 57187.934289575664 55710.085364766863 1.0000000180025095e-35 0.26070754709719529
decision_type=2 2 2 2 2 2
left_child=4 3 -3 -2 -1 -6
right_child=1 2 -4 -5 5 -7
leaf_value=-0.092994784198130898 -0.094405590924289184 -0.0065573316485506884 0.081695024556021595 -0.085307824224846895 -0.083694242428718729 -0.08609703523368932
leaf_weight=0.15026289224624623 0.16163514554500569 3.2828884050250053 2.01112250238657 0.5154317133128643 0.46817112155258656 0.24586265534162521
leaf_count=1 1 26 11 8 10 3
internal_value=0 0.0139911 0.0269685 -0.0874797 -0.0859947 -0.0845216
internal_weight=0 5.97108 5.29401 0.677067 0.864297 0.714034
internal_count=60 46 37 9 14 13
is_linear=0
shrinkage=0.1


Tree=77
num_leaves=7
num_cat=0
split_feature=40 9 50 30 27 53
split_gain=1.40783 0.672146 0.469171 0.386987 4.81027e-05 2.40681e-05
threshold=1.0000000180025095e-35 25036.705510959164 0.0012760157153579126 1.0000000180025095e-35 1.0000000180025095e-35 -8.0616052988533628e-07
decision_type=2 2 2 2 2 2
left_child=4 2 -2 -3 5 -1
right_child=1 3 -4 -5 -6 -7
leaf_value=-0.083607714105816008 -0.019036151685794346 -0.086036297288640637 0.081558911582918656 0.093183773912148493 -0.084703261874182534 -0.082680309800218274
leaf_weight=0.43716179393231835 0.59789450466632921 0.58353467658162106 2.0647367835044861 0.15183049440383911 0.19574688747525204 0.77757840603590023
leaf_count=9 7 9 10 1 3 21
internal_value=0 0.0355972 0.0589703 -0.0490328 -0.0832485 -0.0830141
internal_weight=0 3.398 2.66263 0.735365 1.41049 1.21474
internal_count=60 27 17 10 33 30
is_linear=0
shrinkage=0.1


Tree=78
num_leaves=8
num_cat=0
split_feature=60 2 0 28 25 0 35
split_gain=0.69072 0.682775 0.619036 0.54041 0.41302 0.116871 0.0002775
threshold=1.0000000180025095e-35 45356.848426980585 5623.9571534990064 0.003640505382727277 0.010614949315255104 2850.7781907030399 -1.0000000180025095e-35
decision_type=2 2 2 2 2 2 2
left_child=1 2 -1 5 -3 -2 -5
right_child=3 4 -4 6 -6 -7 -8
leaf_value=0.06417885288911819 0.097309405196651239 -0.090552048556826539 -0.085999762793476514 -0.084461019654873654 0.09299989610220627 -6.8129839164190824e-05 -0.088045171715083026
leaf_weight=2.4598644077777871 0.18279848992824543 0.66480339318513859 0.30894559621810902 1.0738633833825586 0.15030556917190552 0.37834778428077698 0.27041496336460102
leaf_count=18 1 9 4 20 1 4 3
internal_value=0 0.0237397 0.0474218 -0.050774 -0.0567052 0.0316535 -0.085182
internal_weight=0 3.58392 2.76881 1.90542 0.815109 0.561146 1.34428
internal_count=60 32 22 28 10 5 23
is_linear=0
shrinkage=0.1


Tree=79
num_leaves=8
num_cat=0
split_feature=46 59 19 58 52 35 25
split_gain=0.540923 0.577259 0.542895 0.509742 0.485829 5.26894e-05 1.49315e-05
threshold=-0.005198974941475123 -0.029333061963437032 56569.440660006592 0.030782931042531814 0.0077997847937690953 -0.014107770119944187 -0.51391117270810993
decision_type=2 2 2 2 2 2 2
left_child=3 2 -2 6 -5 -3 -1
right_child=1 5 -4 4 -6 -7 -8
leaf_value=-0.083934300348089505 0.075779332105606681 -0.084524265331930151 -0.02803627858877742 0.098910889164825322 -0.083150783829514865 -0.082708853562372175 -0.082371747745625445
leaf_weight=0.11135943979024887 0.72710925713181529 0.89127805829048157 1.6395724564790723 1.0779906660318372 0.16963500529527653 0.19481731951236747 0.1356506124138831
leaf_count=2 5 15 19 6 4 5 4
internal_value=0 -0.0238403 0.00385871 0.0481717 0.0741566 -0.0841986 -0.0830762
internal_weight=0 3.45278 2.36668 1.49464 1.24763 1.0861 0.24701
internal_count=60 44 24 16 10 20 6
is_linear=0
shrinkage=0.1


Tree=80
num_leaves=8
num_cat=0
split_feature=59 44 54 1 24 2 14
split_gain=0.709495 1.26862 0.840777 0.981209 0.533594 0.0021031 0.00063418
threshold=-0.029333498727225984 0.00029968309849881476 -0.0141097919565855 3256.4565604640602 1263.1786926680809 46274.387909045319 1989.4815634336462
decision_type=2 2 2 2 2 2 2
left_child=1 4 3 -2 -1 -4 -3
right_child=2 6 5 -5 -6 -7 -8
leaf_value=-0.022136117494682542 -0.091355794596448658 -0.083889051942344875 -0.084563420892047131 0.056831450589317045 0.10068676983185008 -0.092316548129001433 -0.091559238591153932
leaf_weight=0.44510857015848238 0.6428352817893036 0.49394050613045681 0.76709573715925194 1.4654317628592251 1.7226497940719125 0.64325718022882938 0.13788756728172302
leaf_count=4 5 10 14 11 9 6 1
internal_value=0 0.0391251 -0.0283337 0.0116474 0.0754674 -0.0880996 -0.085563
internal_weight=0 2.79959 3.51862 2.10827 2.16776 1.41035 0.631828
internal_count=60 24 36 16 13 20 11
is_linear=0
shrinkage=0.1


Tree=81
num_leaves=7
num_cat=0
split_feature=49 50 6 23 44 46
split_gain=0.658717 0.697683 0.74458 0.000591388 6.60679e-05 3.88331e-05
threshold=-0.018368119015544807 0.0012252998339295389 35055.599431772229 1.0000000180025095e-35 0.00029968309849881476 -0.0084838111215979079
decision_type=2 2 2 2 2 2
left_child=3 5 -3 -1 -5 -2
right_child=1 2 -4 4 -6 -7
leaf_value=-0.091308419336385171 -0.082551403761257636 0.052868571697753865 -0.028586063542143242 -0.084605848998449806 -0.082214747552559919 -0.084263413896016451
leaf_weight=0.13563762605190266 0.18398779258131981 3.3688752911984921 1.6827858500182626 0.48426391929388046 0.15177317894995213 0.47337756305932988
leaf_count=1 5 20 13 8 5 8
internal_value=0 0.0131242 0.0257348 -0.0853137 -0.0840353 -0.0837842
internal_weight=0 5.70903 5.05166 0.771675 0.636037 0.657365
internal_count=60 46 33 14 13 13
is_linear=0
shrinkage=0.1


Tree=82
num_leaves=7
num_cat=0
split_feature=28 27 26 44 24 61
split_gain=1.25251 0.591111 0.541594 0.000104089 2.11255e-05 1.66142e-05
threshold=0.082815873588990105 -0.20776173234442369 -0.23748378260671113 0.00097994203357625715 1576.2648018957486 0.0068942095423962712
decision_type=2 2 2 2 2 2
left_child=3 5 -3 4 -1 -2
right_child=1 2 -4 -5 -6 -7
leaf_value=-0.083189458879531109 -0.084462944048692007 -0.022246815207819293 0.076617817596023902 -0.085579404308291487 -0.082321282376272856 -0.083050699536199424
leaf_weight=0.51464935205876805 0.12462246417999301 0.75831448286771808 2.0576213262975216 0.14309091120958317 0.61545862630009651 0.2512449137866497
leaf_count=12 2 5 14 2 19 6
internal_value=0 0.0342716 0.0499942 -0.0830384 -0.0827166 -0.0835189
internal_weight=0 3.1918 2.81594 1.2732 1.13011 0.375867
internal_count=60 27 19 33 31 8
is_linear=0
shrinkage=0.1


Tree=83
num_leaves=8
num_cat=0
split_feature=62 50 20 47 6 5 1
split_gain=0.62822 0.803768 0.765899 0.604492 0.451682 0.00371759 4.10125e-05
threshold=-0.00033526264543798579 0.0012760157153579126 30129.468373626409 0.0036623863741608938 17347.417825837583 1737.513354116227 23120.46160795385
decision_type=2 2 2 2 2 2 2
left_child=1 2 -1 5 -5 -2 -3
right_child=3 6 -4 4 -6 -7 -8
leaf_value=0.069784503097783737 -0.08505352312160161 -0.082729552616897906 -0.084986185935888525 -0.083207155349608208 0.092025820167917799 -0.097477365988568418 -0.08452982566548442
leaf_weight=2.2584230676293382 0.93368899822235085 0.19258663058280934 0.37247066944837559 0.22627853974699963 0.42035313695669174 0.32457937300205231 0.36900915578007698
leaf_count=17 15 5 6 6 3 2 6
internal_value=0 0.0246902 0.0478727 -0.0478751 0.0307058 -0.0882583 -0.0839125
internal_weight=0 3.19249 2.63089 1.9049 0.646632 1.25827 0.561596
internal_count=60 34 23 26 9 17 11
is_linear=0
shrinkage=0.1


Tree=84
num_leaves=8
num_cat=0
split_feature=46 59 54 58 52 35 6
split_gain=0.458947 0.520501 0.468993 0.43593 0.429267 4.02374e-05 1.10486e-05
threshold=-0.005198974941475123 -0.029333061963437032 -0.0141097919565855 0.030782931042531814 0.0077997847937690953 -0.014107770119944187 17347.417825837583
decision_type=2 2 2 2 2 2 2
left_child=3 2 -2 6 -5 -3 -1
right_child=1 5 -4 4 -6 -7 -8
leaf_value=-0.083478806527340382 -0.050208203697422626 -0.084056541889199726 0.042295281267624212 0.096358006846829533 -0.08288223040785285 -0.082369955223032712 -0.082049207445169817
leaf_weight=0.099409315735101589 0.94035607576370273 0.8027404248714447 1.3138888813555238 0.97446269541978814 0.15484766662120819 0.17171066068112883 0.11850444972515106
leaf_count=2 14 15 10 6 4 5 4
internal_value=0 -0.0226908 0.00370754 0.0467935 0.0717811 -0.0837593 -0.0827014
internal_weight=0 3.2287 2.25424 1.34722 1.12931 0.974451 0.217914
internal_count=60 44 24 16 10 20 6
is_linear=0
shrinkage=0.1


Tree=85
num_leaves=8
num_cat=0
split_feature=9 10 5 40 17 42 60
split_gain=0.628509 0.85493 0.7767 0.749066 0.394632 0.0661645 0.00158176
threshold=13532.718600328493 6981.1292819032433 1483.4552887656423 0.044311074815417864 1236.0987584734455 0.0058420376932922695 1.0000000180025095e-35
decision_type=2 2 2 2 2 2 2
left_child=1 6 -3 5 -5 -2 -1
right_child=3 2 -4 4 -6 -7 -8
leaf_value=-0.083597684671380679 0.040400762513665062 0.043023554547873988 -0.085700997393686792 0.094584649094423157 -0.084698888928251254 0.099244261455338864 -0.090703826553932998
leaf_weight=0.52598009631037734 0.22982357442379031 1.9322671182453635 0.61886562034487713 0.16302520036697377 0.49728341028094292 1.1336667686700819 0.77443653531372547
leaf_count=12 2 13 9 1 9 6 8
internal_value=0 -0.0218404 0.011797 0.0469885 -0.0404351 0.0893259 -0.0878296
internal_weight=0 3.85155 2.55113 2.0238 0.660309 1.36349 1.30042
internal_count=60 42 22 18 10 8 20
is_linear=0
shrinkage=0.1


Tree=86
num_leaves=7
num_cat=0
split_feature=58 47 13 16 26 50
split_gain=0.60748 0.702757 1.25448 0.806334 0.000407118 0.000126318
threshold=0.03190347581555119 0.0036407279984880902 3448.6106821823182 20878.333578394748 -0.1253464398661201 0.0012760157153579126
decision_type=2 2 2 2 2 2
left_child=1 3 -3 -1 -2 -6
right_child=4 2 -4 -5 5 -7
leaf_value=-0.038022634420452069 -0.089423555368559865 0.05145563815801707 -0.087438620032888451 0.081329383647108469 -0.082367650123488845 -0.085672365843579706
leaf_weight=0.79020376130938563 0.23114644736051559 1.1869724560528996 1.4381408058106897 1.9954919032752512 0.19670648872852314 0.28073571622371674
leaf_count=9 2 7 19 13 6 4
internal_value=0 0.0124887 -0.0246361 0.0474734 -0.0859786 -0.0843108
internal_weight=0 5.41081 2.62511 2.7857 0.708589 0.477442
internal_count=60 48 26 22 12 10
is_linear=0
shrinkage=0.1


Tree=87
num_leaves=7
num_cat=0
split_feature=40 9 14 30 60 24
split_gain=1.10691 0.542657 0.521126 0.300931 3.75442e-05 2.39789e-05
threshold=1.0000000180025095e-35 25036.705510959164 1.0000000180025095e-35 1.0000000180025095e-35 -0.0038336501410520759 1576.2648018957486
decision_type=2 2 2 2 2 2
left_child=4 2 -2 -3 -1 -6
right_child=1 3 -4 -5 5 -7
leaf_value=-0.08405670148119794 -0.099891403293989559 -0.085089829628635053 0.069107507164895901 0.08990383910859033 -0.083080248665510503 -0.082060245324128145
leaf_weight=0.17007483541965462 0.1993468105793007 0.49631404317915429 2.1543337870389223 0.12253131717443466 0.37126535549759865 0.60777167417109013
leaf_count=3 1 9 16 1 9 21
internal_value=0 0.0328853 0.054794 -0.0504411 -0.0826853 -0.082447
internal_weight=0 2.97253 2.35368 0.618845 1.14911 0.979037
internal_count=60 27 17 10 33 30
is_linear=0
shrinkage=0.1


Tree=88
num_leaves=8
num_cat=0
split_feature=40 26 39 61 50 2 4
split_gain=0.565856 0.663925 0.600999 0.494797 0.478563 0.314213 3.01207e-05
threshold=-0.029333231461233622 -0.23748378260671113 0.031447663660976774 0.005847889280287729 0.001617081528862216 45356.848426980585 1634.9053028295382
decision_type=2 2 2 2 2 2 2
left_child=3 4 -3 6 -2 -5 -1
right_child=1 2 -4 5 -6 -7 -8
leaf_value=-0.08502772064822528 0.093400648370526973 -0.085978129949850435 0.044115668755692762 0.092181344327065595 -0.08548979413063422 -0.011848572332590077 -0.08288518675136107
leaf_weight=0.13904468715190876 0.59611031413078297 1.6821640077978379 0.45013211667537678 1.097849518060684 0.19962022453546524 0.39473250694572914 0.12425044178962708
leaf_count=2 4 32 4 7 3 5 3
internal_value=0 -0.0294259 -0.0585151 0.0423737 0.0485235 0.0646693 -0.0840166
internal_weight=0 2.92803 2.1323 1.75588 0.795731 1.49258 0.263295
internal_count=60 43 36 17 7 12 5
is_linear=0
shrinkage=0.1


Tree=89
num_leaves=8
num_cat=0
split_feature=46 59 19 57 5 28 7
split_gain=0.410716 0.464211 0.445923 0.377255 0.171288 2.79751e-05 6.48126e-06
threshold=-0.005198974941475123 -0.029333061963437032 56569.440660006592 0.001181146034727026 1366.9184042606487 0.003640505382727277 37343.155042362967
decision_type=2 2 2 2 2 2 2
left_child=3 2 -2 4 -1 -3 -5
right_child=1 5 -4 6 -6 -7 -8
leaf_value=0.09516186564376948 0.071997926086760686 -0.081859754274266214 -0.026985619837781055 -0.082970971850981526 0.0024339373679238283 -0.083565064545679538 -0.081798913530042594
leaf_weight=0.75976471602916695 0.65446424856781993 0.11010043881833587 1.4942885302007196 0.085969731211662181 0.27000095881521702 0.76181932725012302 0.10456680133938789
leaf_count=5 5 4 19 2 5 16 4
internal_value=0 -0.0218092 0.00316266 0.0469321 0.0708489 -0.0833497 -0.0823277
internal_weight=0 3.02067 2.14875 1.2203 1.02977 0.87192 0.190537
internal_count=60 44 24 16 10 20 6
is_linear=0
shrinkage=0.1


Tree=90
num_leaves=8
num_cat=0
split_feature=59 44 1 54 24 13 14
split_gain=0.615468 0.958645 0.658375 0.78055 0.426962 0.00093436 0.000252962
threshold=-0.029333498727225984 0.00029968309849881476 3256.4565604640602 -0.0141097919565855 1263.1786926680809 4107.8486300673949 1989.4815634336462
decision_type=2 2 2 2 2 2 2
left_child=1 4 5 -4 -1 -2 -3
right_child=2 6 3 -5 -6 -7 -8
leaf_value=-0.021160740374755207 -0.090997495859354752 -0.083048218115844424 0.052145439746291315 -0.086479411670837281 0.095652750684051921 -0.085243101542131494 -0.088507333555749634
leaf_weight=0.39400222897529635 0.61668241024017356 0.38862028717994679 1.278304500505328 0.59535255096852768 1.5200534760951994 0.52019648253917694 0.10860127955675125
leaf_count=4 6 10 11 11 9 8 1
internal_value=0 0.0394702 -0.0283297 0.00809754 0.0716071 -0.0883645 -0.0842406
internal_weight=0 2.41128 3.01054 1.87366 1.91406 1.13688 0.497222
internal_count=60 24 36 22 13 14 11
is_linear=0
shrinkage=0.1


Tree=91
num_leaves=8
num_cat=0
split_feature=56 32 7 8 50 2 42
split_gain=0.553856 0.599738 1.22316 0.69365 0.000150397 4.51994e-05 4.08282e-06
threshold=-0.028160355088643865 0.029061110041697955 37343.155042362967 1677.1365029396736 0.0012760157153579126 5274.572244881042 0.26070754709719529
decision_type=2 2 2 2 2 2 2
left_child=4 3 -3 -2 6 -6 -1
right_child=1 2 -4 -5 5 -7 -8
leaf_value=-0.081514961107590822 -0.088972243542363327 0.038525241483949334 -0.088184266345143217 0.082503473768692548 -0.086534977960885551 -0.084525470504531075 -0.082477487793369345
leaf_weight=0.11191079020500172 0.27679822221398342 1.8255980350077154 1.3074574302881954 1.5967401079833505 0.17453619092702866 0.31205715984106064 0.072696026414632797
leaf_count=5 3 15 17 11 2 5 2
internal_value=0 0.0124124 -0.014352 0.0571695 -0.0843243 -0.0852463 -0.081894
internal_weight=0 5.00659 3.13306 1.87354 0.6712 0.486593 0.184607
internal_count=60 46 32 14 14 7 7
is_linear=0
shrinkage=0.1


Tree=92
num_leaves=7
num_cat=0
split_feature=28 9 14 19 44 24
split_gain=0.982955 0.466956 0.448702 0.256427 9.94911e-05 1.54184e-05
threshold=0.082815873588990105 25036.705510959164 1.0000000180025095e-35 55710.085364766863 0.00097994203357625715 1576.2648018957486
decision_type=2 2 2 2 2 2
left_child=4 2 -2 -3 5 -1
right_child=1 3 -4 -5 -6 -7
leaf_value=-0.082646841490774295 -0.097345510604190624 0.088321262249564478 0.066250841824053497 -0.084458547667386613 -0.085178669149930775 -0.081822232438150899
leaf_weight=0.42722058109939121 0.18304391205310899 0.10667405277490605 1.9938893914222715 0.44100908748805523 0.12878959253430367 0.48321659490466118
leaf_count=12 1 1 16 9 2 19
internal_value=0 0.0317303 0.0524951 -0.0508057 -0.0825772 -0.0822092
internal_weight=0 2.72462 2.17693 0.547683 1.03923 0.910437
internal_count=60 27 17 10 33 31
is_linear=0
shrinkage=0.1


Tree=93
num_leaves=8
num_cat=0
split_feature=62 5 50 47 6 1 5
split_gain=0.505626 0.617627 0.67081 0.479862 0.347219 0.00418373 0.00170936
threshold=-0.00033526264543798579 1737.513354116227 0.0012257204854147017 0.0036623863741608938 17347.417825837583 23120.46160795385 1737.513354116227
decision_type=2 2 2 2 2 2 2
left_child=1 2 -1 6 -5 -3 -2
right_child=3 5 -4 4 -6 -7 -8
leaf_value=0.038482913281587851 -0.084165791237511722 0.10728843761764913 -0.083220497141600444 -0.082585362036211196 0.089432971918549112 0.091779513235498544 -0.093435495402411278
leaf_weight=1.2557675559073689 0.77632807567715623 0.46819712221622456 0.70836113765835751 0.17793957516551007 0.3445659801363945 0.27675935626029968 0.26746867597103119
leaf_count=13 15 2 17 6 3 2 2
internal_value=0 0.0239964 -0.00540931 -0.0473797 0.030852 0.101527 -0.0865411
internal_weight=0 2.70909 1.96413 1.5663 0.522506 0.744956 1.0438
internal_count=60 34 30 26 9 4 17
is_linear=0
shrinkage=0.1


Tree=94
num_leaves=7
num_cat=0
split_feature=35 56 36 53 29 7
split_gain=0.378355 0.60739 1.46151 0.278217 0.158354 0.224493
threshold=-0.63903448567334198 -0.026992373420843704 -0.029631534693908456 -0.0017162251248640404 -0.11881585997198922 14007.924314431935
decision_type=2 2 2 2 2 2
left_child=4 2 -2 -3 5 -1
right_child=1 3 -4 -5 -6 -7
leaf_value=0.092242001610272295 0.098623470872257771 0.060382559381050208 -0.083568322632040157 -0.083971953936253563 0.096155370734153298 -0.082591456327501644
leaf_weight=0.14387825131416321 1.031641364097595 0.15024972334504161 0.76812180504202898 1.1985796093940726 0.48125392198562655 0.15002415888011456
leaf_count=1 6 2 19 25 3 4
internal_value=0 -0.0171573 0.0208657 -0.0678919 0.0608342 0.00299727
internal_weight=0 3.14859 1.79976 1.34883 0.775156 0.293902
internal_count=60 52 25 27 8 5
is_linear=0
shrinkage=0.1


Tree=95
num_leaves=8
num_cat=0
split_feature=59 44 1 3 24 13 14
split_gain=0.517152 0.818477 0.575424 0.718813 0.361914 0.000644034 0.00016274
threshold=-0.029333498727225984 0.00029968309849881476 3256.4565604640602 46642.819326079909 1263.1786926680809 4107.8486300673949 1989.4815634336462
decision_type=2 2 2 2 2 2 2
left_child=1 4 5 -4 -1 -2 -3
right_child=2 6 3 -5 -6 -7 -8
leaf_value=-0.019647201016950416 -0.089614311342295014 -0.082726646500647621 0.052683815988252114 -0.084032598360646527 0.091996118472189484 -0.084543304903118094 -0.087370276806346708
leaf_weight=0.36762090027332339 0.55293428711593173 0.34567063115537155 1.1651547066867349 0.5740341655910014 1.3816308341920374 0.45781588926911354 0.096550904214382172
leaf_count=4 6 10 9 13 9 8 1
internal_value=0 0.0378057 -0.0273129 0.00755939 0.0685333 -0.0873174 -0.0837405
internal_weight=0 2.19147 2.74994 1.73919 1.74925 1.01075 0.442222
internal_count=60 24 36 22 13 14 11
is_linear=0
shrinkage=0.1


Tree=96
num_leaves=7
num_cat=0
split_feature=52 21 8 23 30 24
split_gain=0.48651 0.501684 0.768056 0.688861 0.000452607 2.40717e-05
threshold=0.0058328107724790945 35609.389198319601 12360.773437190384 1967.6429918402848 -0.68619529342214813 1576.2648018957486
decision_type=2 2 2 2 2 2
left_child=4 3 -3 -2 -1 -6
right_child=1 2 -4 -5 5 -7
leaf_value=-0.088690694781322521 0.066513203632450488 -0.063582613064460031 0.082124508261680981 -0.055074676627548835 -0.081369354679954486 -0.083317141713498771
leaf_weight=0.20980285853147507 2.0897451490163808 1.454931693151593 0.48149195127189148 0.59967523254454125 0.080483773723244556 0.29977265745401382
leaf_count=2 15 19 4 9 4 7
internal_value=0 0.0114579 -0.0273525 0.0394021 -0.0849621 -0.0829049
internal_weight=0 4.62584 1.93642 2.68942 0.590059 0.380256
internal_count=60 47 23 24 13 11
is_linear=0
shrinkage=0.1


Tree=97
num_leaves=7
num_cat=0
split_feature=28 27 46 44 24 6
split_gain=0.848467 0.425703 0.394681 7.93268e-05 1.12267e-05 9.69789e-06
threshold=0.082815873588990105 -0.20776173234442369 -0.0084838111215979079 0.00097994203357625715 1576.2648018957486 3466.3129097918354
decision_type=2 2 2 2 2 2
left_child=3 5 -3 4 -1 -2
right_child=1 2 -4 -5 -6 -7
leaf_value=-0.082347933211378357 -0.081816113889711606 -0.084247375074153183 0.058889542979191856 -0.084730912735253766 -0.081598285868204404 -0.083114587866244496
leaf_weight=0.3775243274867538 0.078265246003866529 0.2132136113941675 1.9962388258427377 0.1177438497543335 0.42430184688419104 0.21698924526572227
leaf_count=12 3 4 15 2 19 5
internal_value=0 0.0300061 0.0450767 -0.0823072 -0.0819512 -0.0827704
internal_weight=0 2.50471 2.20945 0.91957 0.801826 0.295254
internal_count=60 27 19 33 31 8
is_linear=0
shrinkage=0.1


Tree=98
num_leaves=8
num_cat=0
split_feature=62 50 20 47 6 9 1
split_gain=0.444321 0.531961 0.550759 0.428856 0.304787 0.00128957 1.64977e-05
threshold=-0.00033526264543798579 0.0012760157153579126 30129.468373626409 0.0036623863741608938 17347.417825837583 1262.6355795991058 23120.46160795385
decision_type=2 2 2 2 2 2 2
left_child=1 2 -1 5 -5 -2 -3
right_child=3 6 -4 4 -6 -7 -8
leaf_value=0.064091428624174288 -0.093038146725592519 -0.081792029536743249 -0.084001662125384596 -0.082339296826097891 0.088464477630704585 -0.083930608556530908 -0.083170026816319409
leaf_weight=1.8193581122905027 0.19718272238969781 0.12886838987469662 0.2913396544754504 0.15695619396865368 0.31242980808019638 0.73490444198250771 0.26666014641523361
leaf_count=17 2 5 6 6 3 15 6
internal_value=0 0.0237064 0.0436501 -0.0466018 0.0313501 -0.0858573 -0.0827211
internal_weight=0 2.50623 2.1107 1.40147 0.469386 0.932087 0.395529
internal_count=60 34 23 26 9 17 11
is_linear=0
shrinkage=0.1


Tree=99
num_leaves=7
num_cat=0
split_feature=35 36 56 10 29 7
split_gain=0.340723 0.52902 1.26789 0.310534 0.131977 0.194871
threshold=-0.63903448567334198 -0.029631534693908456 -0.026992373420843704 10965.106517588943 -0.11881585997198922 14007.924314431935
decision_type=2 2 2 2 2 2
left_child=4 2 -2 -3 5 -1
right_child=1 3 -4 -5 -6 -7
leaf_value=0.090773750031054937 0.09599420632334521 -0.083318734565959618 -0.083377557402610145 0.089177681825986954 0.094336361927656043 -0.082223318788889443
leaf_weight=0.13075140118598938 0.93852205574512482 1.0908940974622958 0.67929258756339594 0.11540398001670849 0.44265591353178058 0.12970628030598164
leaf_count=1 6 29 16 1 3 4
internal_value=0 -0.0166939 0.0206791 -0.0668164 0.0611032 0.0046223
internal_weight=0 2.82411 1.61781 1.2063 0.703114 0.260458
internal_count=60 52 22 30 8 5
is_linear=0
shrinkage=0.1


Tree=100
num_leaves=8
num_cat=0
split_feature=59 44 54 55 24 2 14
split_gain=0.459202 0.709289 0.523575 0.634749 0.316128 0.000654976 0.000107784
threshold=-0.029333498727225984 0.00029968309849881476 -0.0141097919565855 -0.029632292784342412 1263.1786926680809 46274.387909045319 1989.4815634336462
decision_type=2 2 2 2 2 2 2
left_child=1 4 3 -2 -1 -4 -3
right_child=2 6 5 -5 -6 -7 -8
leaf_value=-0.018487039774227432 0.051182137618999396 -0.082415824942032256 -0.083022288183598372 -0.087127266025768299 0.089612371919614256 -0.088287802745293575 -0.086422480139579705
leaf_weight=0.34364758804440532 1.0809431485831735 0.30630694329738606 0.48734495416283596 0.47879197075963054 1.2714834436774252 0.45847554318606853 0.085990302264690399
leaf_count=4 10 10 14 6 9 6 1
internal_value=0 0.0373172 -0.0268719 0.00872529 0.0666123 -0.0855747 -0.0832941
internal_weight=0 2.00743 2.50556 1.55974 1.61513 0.94582 0.392297
internal_count=60 24 36 16 13 20 11
is_linear=0
shrinkage=0.1


Tree=101
num_leaves=7
num_cat=0
split_feature=43 8 11 60 14 10
split_gain=0.441316 0.497998 0.759369 0.609865 0.000189884 1.80097e-05
threshold=-0.87260544175236643 1677.1365029396736 2576.535831560047 4.1355321429025953e-05 1320.9584892789555 7797.6758275995835
decision_type=2 2 2 2 2 2
left_child=4 3 -3 -2 5 -1
right_child=1 2 -4 -5 -6 -7
leaf_value=-0.082259649571415419 -0.086436692174163124 -0.085254218367235457 0.050913353648519045 0.10247537332854467 -0.087611873998961573 -0.084290768029414695
leaf_weight=0.057604087516665348 0.84786603692918994 0.48139014653861556 2.7442675130441785 0.21402665972709656 0.28961540013551712 0.1802821084856987
leaf_count=2 13 9 29 1 3 3
internal_value=0 0.0110378 0.030592 -0.0483611 -0.0858924 -0.0837989
internal_weight=0 4.28755 3.22566 1.06189 0.527502 0.237886
internal_count=60 52 38 14 8 5
is_linear=0
shrinkage=0.1


Tree=102
num_leaves=7
num_cat=0
split_feature=28 9 14 30 44 24
split_gain=0.735314 0.377415 0.362279 0.194321 5.78776e-05 7.94099e-06
threshold=0.082815873588990105 25036.705510959164 1.0000000180025095e-35 1.0000000180025095e-35 0.00097994203357625715 1576.2648018957486
decision_type=2 2 2 2 2 2
left_child=4 2 -2 -3 5 -1
right_child=1 3 -4 -5 -6 -7
leaf_value=-0.082076903812089333 -0.094428064129140843 -0.083950049262624171 0.062203835026807534 0.086078799624382085 -0.084226604593816312 -0.081406292774182362
leaf_weight=0.33447876106947694 0.16181023418903384 0.37199685163795937 1.689424145966768 0.082039982080459595 0.10616299882531166 0.37403644528239965
leaf_count=12 1 9 16 1 2 19
internal_value=0 0.0284747 0.0485132 -0.0532275 -0.0820491 -0.0817229
internal_weight=0 2.30527 1.85123 0.454037 0.814678 0.708515
internal_count=60 27 17 10 33 31
is_linear=0
shrinkage=0.1


Tree=103
num_leaves=8
num_cat=0
split_feature=60 2 5 28 9 8 52
split_gain=0.394774 0.404786 0.340081 0.316811 0.282911 0.215914 6.7766e-05
threshold=1.0000000180025095e-35 45356.848426980585 1366.9184042606487 0.003640505382727277 13532.718600328493 835.85950662324194 0.0067302536329690568
decision_type=2 2 2 2 2 2 2
left_child=1 2 -1 4 -2 -3 -5
right_child=3 5 -4 6 -6 -7 -8
